-1.1584009154999626 1.98095804659584 -0.6830472379399337 -0.7749033701064318 1.0419697926994247 -1.334521011211127 1.7074547369803421 -0.7294266633972349 0.4402459242857945 0.684192748411958 0.25216852948629065 1.3362959993463148 1.3471358520850993 -1.6752224895404768 0.6491096886304384 -1.198106702690958 -1.3341327208367975 -1.4874159164907805 0.44019094622116417 0.525077919618338 -0.1181917594733398 1.186590738366728 1.6632407097820383 -1.3849747458382908 -0.45532635427669155 0.37156930760291357 -1.5255236192892863 0.4308233642987967 1.3594791188756579 0.6852596234139698 -0.21283322121674875 1.1498601745422627 -0.1020228027265353 0.2809009780596594 0.3038080597695254 1.1091080926522334 0.9232893683948542 -0.18498743790136585 0.047412102195498296 -0.40935880814992176 1.5097002787876206 1.2634905912458498 -1.8951334047235202 1.750820904471743 -0.5506959690663046 -0.5825829109098882 -0.3936119358047593 1.0066466094407234 1.0839075357513503 -0.9788902470385816 -0.5938604625511739 -0.4657105173299313 1.1993351841370479 -0.5187360842593275 0.3506328558341556 0.05166823459870364 -0.9161996793795618 1.4382564111313656 0.6411990636430087 1.4724371616826053 1.1507770961250745 -1.2120311502323586 -1.3738849019955532 -0.3279451892829064 -1.0705205631446642 -1.7265914088095757 1.029059907119126 0.23028953549136566 0.9628187382554819 -1.0529018538961514 -0.37326984368252825 1.632139688804545 -0.4550081100132572 -1.7536976161113356 1.8110855473914582 0.7368438599173033 -0.498959807684933 -0.2566902910505501 1.9552096007459823 1.283988904971813 1.1855688121409098 1.9203089736239753 -1.569123703780893 0.6434620604836744 1.1334138297833751 -0.9372633129272585 1.407493870935011 0.6729145154724996 0.7675871256867455 1.541339343314304 -0.18136945441582517 1.8638949352344658 0.9033231409692903 1.8715893480921315 1.1753544407930518 -0.024232018652973565 -0.3597760022012496 0.2235094768519991 0.025349412190974568 1.4659291337771356 -1.3071082865941235 -0.6999582876604619 -1.4790830276869498 -0.9855474283924748 0.9680179187533189 -1.8945721074893276 -0.9881500368668366 0.1447561917111413 1.3978594286278638 1.437688178200688 -1.632354057156533 1.9377991706847508 -0.8578405220304565 0.6634580381890093 0.13032096015972225 0.8729595218799697 0.0781265443895485 0.8293168194452204 -1.4483247437493365 -0.9929513005682093 1.002453532025237 0.7043764836660702 -0.5423274566734149 1.469202594920102 1.6212275902227713 -0.8889057491984537 0.5666311309499752 -1.8034642600121056 0.7067002482123247 0.5906751147405961 -1.7642322508044939 -0.43205994212404497 0.26293742915173013 -0.43301648434485 -1.4297262411999367 -1.656179027342891 -0.8562422203214103 1.0689021053264838 1.7291734083740025 -0.7804196896155797 1.2943320974188994 -0.9081914280593657 1.3478487349182533 1.2894163122152862 -0.2368162352094716 0.9921208642103823 -1.3587467631380412 1.983960604811235 0.028318545979826304 0.41480582773106844 -1.1319300912675625 1.0647823534478538 -1.411802854474661 -0.1091565730399715 0.9875018626295118 0.8913334119446898 -0.05259119920426247 -1.6296981517977782 1.8517358759028468 0.08495105253750967 1.9334347557228457 1.1458478732130648 1.1118794694486023 0.6017998854948741 -0.16319050299641624 -1.8664996804288827 -1.8246147445206278 0.018585898216542773 -1.410352912678937 0.3945366976603428 1.8381310249253162 1.7762825409651906 -0.9548463471833597 -0.2136283488853219 -1.3755187560668731 -1.8064862862697506 -0.6065953861643534 -1.240870296444493 -0.5961892933145907 0.25264568055740444 1.7710889429019694 -1.4313759664538863 1.4964269077531205 0.5019976078363542 1.9474585319452355 -1.4544944480950737 1.392597914377919 0.6817447879321465 -0.7902933281919009 -1.359853938983497 -1.3310032978086175 -1.1968205029365349 -0.7448260510387511 -0.16732435510130422 -1.3194682903593158 1.1622163576294688 -0.7554421213013905 -0.7508452831406079 -1.6106389528843779 -1.5337732014158008 0.0495480718962944 1.1282343997109603 -0.5882295085069256 -1.1750866078648778 -1.4159857577940014 1.1805757537817443 1.6410189808486684 1.3567272999022744 1.5383421368996961 0.8686280641083512 -2.0872655936718076 -1.5207062674896272 -0.04526960724373975 -1.5563911806067408 1.4011834829491088 0.23307434434982266 0.4039730281895304 0.7450010700286152 1.3079233031443558 0.5069693857687503 -1.7854308661217289 0.8410222375554905 -0.7326771869294358 0.3196521847802347 0.7510773967444345 1.3797521347557495 -1.3901534420758834 0.3181117225433594 -1.4414273360033707 -1.0823590991178984 -0.9588304148967686 0.7942044298686157 -1.209125304362279 -1.7387073084518707 0.03746264702625714 1.0026218604908117 1.302505017355006 -1.7554972036666867 -1.5272911516379952 -0.3130330822130786 0.9898324198812362 0.6715628690811928 -0.18003813118233628 -1.6675528798929684 -1.9360162464538921 0.7942815850715225 1.905729495491262 -0.6877932707647298 -1.8255437218879935 -1.8455524243098247 -1.27460964708473 0.2575393314678173 1.7562866483227892 -0.9619158143417577 1.448732448405312 -1.8149997382560443 -0.3721631687623908 0.765593474345891 1.2758545509936754 0.48997738648437084 0.04892217000556625 0.7690542466141259 0.7783727170190852 1.794228967581905 -0.04227413677988393 0.12535666598640946 1.1331795130568079 -0.17283968089667331 0.4290242766566533 -0.9793055642950353 1.4112735333569324 1.6408491288722395 -1.810060071288332 1.8715615559987167 0.5318808907845376 1.3912605019131348 1.6037923069964435 0.2772689654708002 0.541078446090993 0.14968141179452923 -1.8851795035862406 -1.4957154129570627 0.6167827532030534 1.6700868423946027 -1.6184720868081406 0.28346588413406765 0.4083377081293262 1.8765058510065098 0.2444967815058948 -0.5422219030933708 0.8698835569356675 1.6030887073751194 -1.870095548960906 0.6036191964805149 1.6955311341602939 -0.4024012854760468 -1.3738417059183061 -1.9863139491177324 -0.7358430641900696 1.771431763240476 0.24582909846092277 1.4565738126446466 0.19632343996953217 -0.33875472423067715 0.1999267292311865 -1.0427656736281814 -0.3544291320758412 0.5940704861873434 -0.45035098052644607 -1.9135415644536276 -0.4983636193348895 1.3949932163081216 -0.7443309306307112 -1.430417112887889 1.2577024580022014 -1.3502665185295384 1.2839490814676033 -1.134983880577935 1.82679465432091 1.044979703286263 0.9463780577646272 -0.9990872791951728 0.2416280254833691 -0.022904968816819145 -0.0068049004828230845 -0.533290075498631 1.9915336010414917 1.745246250444885 1.2568506568977926 -1.2317198757220786 -1.7279564702583876 -0.3451673667531409 1.2589403661562009 -0.7649734685346933 1.930626023674776 -0.9410382893604915 1.6426977884264882 0.10749886051272672 -0.8203859780968576 -1.3379307609820317 -1.263311716707599 0.2753207855468087 -1.8782569604157726 -0.502283083102745 1.0477456915197316 -2.0170937762206558 0.4414845030569073 1.9608320446619993 0.7739607764717724 1.555274076737418 -0.3683071225987565 -0.2507301527049076 -1.1636277007602247 -0.5872749407350938 0.46660026284336087 -0.07867799735101795 -1.8609816573268727 -0.8391031747905188 -0.474851107239157 -1.7558017693459766 -0.058829176875157006 0.062485012555272446 -0.5285716541529389 0.8518930816933922 0.049957535298127756 0.13807577836751933 -1.0421962280551125 1.3396634245780794 0.5839149412442601 1.0383127900817144 -0.9238887804649245 1.179185056836185 0.5357258835954107 0.7618724948354948 0.07381452393347852 -1.1316057323873927 -0.46666171037544535 -0.6308788211068737 0.6918818179704137 -1.097750871696451 -2.0641488372774153 -0.5029531539736645 -0.6472934814294818 -0.7434357336186443 1.3439030735703685 -1.861695969337803 -1.6791857694738146 -0.3644016439358513 1.8974961692885322 0.7334044405624741 -1.1919766707672907 1.2625861722196001 -0.8373091568749192 1.973638063964853 -1.6286497083470386 0.06767908426623556 1.0903578727590681 -1.3081823713780123 -0.32447835013575627 -1.5088993490617744 -0.19602632021046615 1.5183715137474691 -1.9073669521364556 1.9881584153481477 -0.4123625523601161 0.9109576296133652 0.4771651010621533 0.47202079609796305 -1.5175587152945509 -0.600890152800573 -2.1611024116452136 -0.37768978893875255 0.6920750192233301 0.41615969717513185 1.437886351898778 1.419126091161724 1.5044459809598383 -0.4371509798656888 -1.2661263076185618 0.1887365341802647 -1.6957072687312267 1.6102520593263183 -1.507449847621133 1.1632322329833098 1.2380131850982548 -0.8668550425318553 1.3111927235588887 -1.3554684203020904 -0.5053132488882566 0.057183326149926564 0.725365783881073 1.947413850320945 -1.246706208847125 -1.7841040426276078 -1.0818557262251092 1.1296127549981836 -0.9401567058758059 -0.3320116816561032 -0.04318848748528455 1.2207745364046458 -2.103365894723511 -1.370241947816179 -1.6865562216052343 -0.212387157843279 1.5189136381860693 1.3610919072690686 -1.4501694558728888 -1.333479981672068 0.48521684558768025 -1.0075680037661288 0.5902693702912449 1.0646353823775292 -0.22083141697737185 1.0728007711675578 0.18702435926596886 -0.9612690379847163 -1.8868051185632437 -0.3796989172390259 1.3930150695368844 -1.6322552069712832 1.145355456719767 -1.5970881437763393 -1.995924664865861 -0.1333977362955001 -1.625923414193699 -1.9470205876256164 -1.0782051316004022 1.5975265825560172 0.7286315230124821 -1.8632947861288913 0.08627236867870038 0.5469309040947562 1.3104318240311863 -0.4518666896006742 1.2312426797477092 -0.2628119471953476 0.2085948631204989 0.2919494463362788 1.6002965542008938 -1.6661482623019919 -0.7472703173762678 -1.7309820247633552 1.4141188916217122 0.06085813784329473 0.37889299880367233 -1.7881780344461935 -1.2730688626392197 -1.8555136689065912 -1.382790698595819 1.9958253116106004 -0.6202836855743916 -1.0974896522135853 1.6415632837049987 -0.5069188775698648 -1.8067758741228577 -1.0892318886748846 -0.017021280305393512 -1.5684224522037122 1.8964918886657731 0.12236350510899514 0.2372099228111043 -0.11468081849932033 1.670671143882188 -1.4865285022691357 -0.3170019289574877 1.1695986618765462 -1.3682399852673905 -1.4499186250317608 1.0868948753506043 1.6571806611774478 -1.7426947455516424 -1.1704668048926763 1.2164537084505205 0.5157655645724671 -1.5674765521498686 1.701194179473443 -1.507643702127348 0.8619726479954791 -1.3769486745610053 1.2541742770322597 -0.9216123954776105 0.3565628483670806 -0.3576179204235145 -1.6691313034595758 1.7782489509418753 -0.0012591126973504913 0.7924199541255205 0.966213852292888 1.8892992682412268 1.419605933433119 -1.881580759465984 -1.912397491506278 1.3070324594159124 -1.7444096114452639 -0.5050941733748563 -0.8869713399820688 1.6870363537043325 0.5966179928665325 1.3936185498634832 1.982495280840976 -0.4595696799666826 -1.8660151831451763 -1.864832750682482 0.7358586621046342 -0.7656862484127022 -1.4197309507730707 0.3163587491314694 0.5877799156131559 0.9964548334142017 0.2160831688001512 -0.05899642748445128 0.22942233637881343 0.9302980762450401 0.22087976214440214 -1.4603506705399196 -0.5766727911985782 1.4866470687848703 1.6693861279400413 1.58504634098604 1.598034027621936 1.597135454240947 0.13114922098467666 -0.5593600590121839 -0.792890712817828 -1.4832774226695906 1.4495751510803667 -0.39071741335086 0.10985189807685526 1.52272546207615 0.25369988323441267 -1.2614629613017645 -1.2490175896542686 -0.5474732332491613 -0.8883136008612538 -0.4396101099583618 -0.2962161987177615 1.2534142949006035 1.0750222251239572 0.23844929893427466 -1.5145716726581357 1.1158354011491733 -1.866355547113619 -1.1149322805083004 0.3158342842539879 1.5998266376420804 0.23057030109161852 -0.685971720131585 1.479433918271642 -0.7290734390402182 -0.8257879990801408 -2.250290030976773 1.1614492351865466 0.7813018461487519 -0.17416327226245107 -0.8543817690740577 1.005900158485302 -1.5651829392639163 -0.7842136026553062 -1.9269461857587438 0.783108911547412 0.27042815217661953 -0.16717681898360237 0.5787751563375635 -0.6362694357696517 -0.6899104371770359 0.9676504743530716 1.333179112340889 0.9686045225980497 1.3573679505941725 1.542460256350539 -1.311219504194248 -1.9597086912054138 -1.0624675384328166 0.5886516718435819 1.5593122231800824 -1.770584437245507 -1.2556072295996612 -0.5125022633455137 0.4757595805022303 -0.6848321518141517 1.5051428215651421 0.6954573842044007 -0.0354477268386723 -1.943058054501034 -0.8177755695001232 0.8530897217689614 1.8374024947459373 0.11941013160118502 -1.6568133733374937 0.5987962791109683 1.7066692348449881 -1.6616111769064519 -1.3939795814377878 -1.6496857823217042 0.5830151946277491 0.9447243347728186 0.47212518575140294 -0.7288527468264322 1.1144848942515613 0.9052207200431124 0.7381963031772367 -0.6225260045850115 0.8253596664537208 -1.3313257582751445 -0.9161225549514658 1.3977706719210443 -0.8033568948997729 -1.8415471532366832 0.8969946205348691 -0.034412192248572004 -2.1813162359178917 1.9994041625625714 1.1911417650841092 -1.4132323687188029 0.8453312684146354 0.2609468265044858 -1.6365006727000548 -0.7234607753617268 -0.7664787784519383 0.24865225520074796 -1.3949741664536388 -0.4688457895212485 1.4249473126615362 -1.6668464006520336 0.9619795677263611 -1.5003705766368773 1.4314608645631635 1.5156823769492234 1.2365224805041841 -0.6232363162155302 -0.92698677225132 0.41773995712664913 1.7788814333272462 -0.872924109731041 -0.7241819645548435 -1.2729955164424107 1.978969151976541 -0.6694620077518267 1.7242839140555604 -1.788957450588321 -0.5534417411839315 0.596917792706451 1.1463604244940993 1.950084170783743 0.7867236517880705 -1.6241756950612076 -1.9330382587856454 -1.7073660225587493 -0.5554052511985855 -1.496717456284814 -0.46469720754228716 0.3146750313329868 1.5094401088733431 -1.2870247157359818 -0.14660727490188263 -0.47843564023941243 -0.4567646778661837 0.3699103450517503 1.724996156894033 1.736981061403567 0.5291229146329434 -0.4431038130587485 -0.16700330242103542 0.6541511138308326 -0.8840925397661571 0.1387557444891217 -1.81807852429077 -0.9810361717428392 1.2274319000502807 -1.4236969763779752 0.7400431978229851 1.3074652032553404 -1.2248089735796115 1.9069970646181478 -0.017388872314138677 -1.5672836696096972 1.0163901064237035 1.0692447842223156 -1.2119958392766155 1.4948754130259663 -1.566073970423666 0.6292148357682666 -1.3596839441249549 0.7871201129169981 -0.3230776934487001 -0.03807433783269566 1.9808632416417837 -0.06713526240063394 -1.2190738565327306 -1.2362546614904935 0.6364521241214819 1.7616516598405505 -0.5489441076738285 0.11765038039797532 0.6136141824520438 1.1498138064526269 -0.5333593556127302 -0.5450137638498569 -0.43642437156695557 1.9497741937135509 -1.4574037634595054 0.5109544097670186 -1.7159906088145103 0.146916573873543 0.9592963226909725 0.970516960800719 -0.6229968093540668 -1.8041847747260156 -1.8468012092057977 1.1348394675833386 -2.059783639710438 1.4584994172169776 -0.6584059054423477 0.38762050342748045 -1.3671905099617743 0.44115259086134495 1.7969784424949633 -0.40344319737491946 0.4841901691878998 -1.2523756993560233 -2.012445582098827 -0.9682723656636766 0.5652385895011602 1.1537358305953849 -1.965584152591689 -1.2807176425272628 -0.14086489472376174 -0.9564136500195798 -1.160600167678905 -1.4488403180627343 -0.8108916388066169 1.175793266165095 0.7168961444122197 -1.6285542888875715 -0.913291584352362 0.3124862779604028 -1.524179066128329 -0.6673631201035218 1.0934871556364785 0.11079391827616038 -1.8158036609415122 -1.0412971053615432 -1.4778459157983899 -1.2600705253154165 -1.3333350072250758 1.0462854460821043 1.325682270608381 -1.8316785548830785 0.3173683421833881 -0.04844662279332037 1.0621832361217463 0.4716446775630229 -0.040361220052490175 0.9824817860669315 0.4610144953309906 0.5567253014304644 -0.8556960812127009 -0.47561258487750474 0.44919155686366025 0.3860954138009477 0.26558604440613937 0.1978520333366984 0.5036181363384142 -0.6958008376432654 -0.7474009756774405 1.7395963395405802 1.6042996915844654 1.264680857532444 1.8304279008168423 -0.7477223744634037 -1.0815405975912988 1.777430944473012 1.002610466074839 1.3482642009953145 -1.4775293141953885 -0.9792700764534182 0.8205629036568245 0.1937127884822832 1.4394962985439945 -1.0470500067343336 1.002245565973305 -1.2349348175430208 1.943563106878281 -0.6864160754584977 -1.7774055105615714 -0.32880117042544776 1.0355676172115036 1.3087079308206362 -0.053751808273428035 1.4625635919118742 -1.4778383528019652 1.3473682088417605 1.6076477412777799 1.78329907737534 -0.8589457012526154 -1.4941225288345665 1.893996941927966 -1.006465619084762 0.8875337885798504 0.39074175654855864 0.6494209067217545 1.6546984348141722 -0.19555804197261065 -1.307218903151104 -0.7379930764768189 -1.0269120716314084 1.784471216192474 -0.5984902001579571 1.268358904104963 -1.3802668027280725 1.1183832435338454 1.6785997877102796 -1.50376005468479 -0.8343321604140909 0.0453081712302782 0.42830929107038174 0.20016246406585295 0.5489185611834513 0.9787277459436265 0.12081552550957829 0.8762787533266174 1.1122597800878165 -1.6338417170064063 2.0168726687070384 -1.9433374627912812 1.3180768676728976 -0.5464793356019685 1.4849768812189115 -0.8504401197037981 -1.22309744321329 0.6467051155972254 -0.29324621063026174 -0.964905958906653 0.7610126442617696 -0.37640798388821317 0.029860789732005368 1.1896052632434895 -1.85819993252407 -0.1690293793977781 1.6799793913220635 -1.2098239866063465 -0.1796959157242093 1.8016343031300635 -0.43676151478825564 -1.7604167960850385 0.2453587863167694 1.106519158163707 -0.558670375708314 1.354126425209037 1.530209471613679 -1.4492852945730244 -1.6004891613240866 -0.8581646676013093 -0.09378203242694311 1.6695555606159167 0.7977761573966305 0.5515906396087269 1.7248747359603431 1.9377300975387113 -0.6512231224039302 0.17446729904213723 -1.8600866800997782 -0.9347820507864613 0.8837189011722268 0.8150174075759697 -0.698336708222017 -1.0278558618999545 -1.1140707961133707 0.33836561189779163 -0.5485922113000271 -0.944436903867066 0.31060493237296755 -1.7679542867823461 1.839921786503403 0.3799380520043135 1.1685330371640832 -1.3736493414281612 -1.7853347428080915 0.7493426893982417 1.0492029551962239 0.6769032032047172 1.7970440207851133 -0.2106988593983593 -0.09644172093918667 0.5561208469828148 -0.10449208839471243 0.8816637260606811 -0.6500514354969825 1.1667354126400549 -1.704415442219981 0.0485679222336001 -1.7762878440929248 -0.587616259690681 -0.987084806806602 1.947973962411111 0.8025548001384525 -0.4628771369392056 -1.734467577602995 1.8179099158917031 1.2429434087931424 -1.2821639163763814 -0.7115320373732468 -1.2971798744955678 -1.3127674878455724 -1.277371566303221 1.6307334658376849 -1.0947352598504472 2.007171174000006 0.05339522686906953 1.9826522429209272 -1.0772138586954265 0.20752158490705402 -0.9589867282258127 -1.1270201839418708 -0.24393106247829896 0.9126714546090448 -1.8040887862829245 -1.7103983051006104 -0.2836317245792271 -1.997378887934115 -0.12342747200859462 0.7826446650591833 -0.1516934700518007 -1.8527832315066286 -0.08396741779052981 1.179548985221169 -1.3133724583142983 1.9486491467134806 -0.883288517917294 1.1051812478118868 -0.41697350128240374 -1.7806764344124073 0.7210825928745569 -0.5329339371276879 1.456476581951108 1.926230549414051 -0.8154444661481021 -1.7233001948732067 -0.647539778396337 -1.5050573303237684 -0.7832659984613668 0.4201402551280713 1.1417828378366375 -0.37108477202946694 1.9881433703140448 -1.7834983598081993 1.635535756795601 -0.7351463083248884 -1.843100674347416 0.09404402154217834 -1.3259766368340944 -1.164494019300026 -1.952344368049065 -0.4718022953138493 0.13873954000372885 0.4787220119923025 -1.0146462068184388 -1.8647052090477172 -1.6665094414474986 0.8060417584620234 -0.29639927514282327 1.6727738126807739 -1.9833275486664 1.795909886955341 -0.3588225732232549 1.476080193811135 -1.576530619182835 0.5551907660040252 -1.885362095147341 -1.822755902049423 -1.3086625719488536 1.7544449840184964 -1.6058995827651175 0.7301006636601575 0.31793536098699876 -0.16909681036085047 1.133135517189473 1.7661127334553894 1.6979077260197857 1.3557246048001448 0.8056229284215316 -1.2011908289953372 -0.3146417625471574 -0.17475806226468965 0.7054086561692594 0.4371220033472296 -0.862717445332768 -1.756208585842798 -0.6588486042555035 -1.103785743292032 -1.6591074048289836 0.4080304187271192 -1.3325930498442222 -0.8485432209411852 0.6378744436516661 1.6724835952145167 -1.4166575062866968 -0.3587562677104055 -0.3850937071993442 0.08872713746458981 -1.2623899288058194 0.43635320157847257 -1.0904122656093476 -1.6657655443806063 -0.9469740918906702 0.4534076292520925 0.9812241991095549 0.13473449281218666 0.9079057955848269 -1.8022286792885782 -0.18661500828336497 1.335190181257061 1.0950192941025834 -0.11010356229766115 -1.0313529385171378 -1.2409709990004745 0.9383283915948571 -1.2209523667423599 -1.4365958760684543 0.1975006996645204 -2.0357284444129293 -1.9949811760700975 0.29727135043672 1.633749301116021 -0.29560195848540033 -1.2358117584570671 -1.422281384847454 0.8768392999824139 0.9067269949280502 -0.0011775725693463847 -1.9325050665667178 -1.0887355362002527 1.1229649338880765 0.9507555918884558 1.987823332948833 0.7218881256784945 -1.853253385001055 1.2710974201694911 1.036901319570233 1.322448412597322 -0.955200664578184 1.8405081041225078 0.7467519213403464 -0.988036419711484 1.9057119843238082 -1.8279246825186628 -1.2975251241147097 -1.3213055910866618 -1.9611979271599675 -1.3751756627327716 1.3659510444070102 -0.40570531944356664 1.7175864187926555 0.250261123309482 -1.6297850239880949 0.31876412396237624 0.8885484306056762 2.092546789790712 1.980887379693068 0.9919432954451128 -1.757006061531253 -0.1349077536485833 0.9102481017262641 0.7568763982015198 -1.1953489448339687 -1.6769439190179831 -1.300345337383964 -0.49360361471379677 1.7636819195221627 1.65190234681583 -0.787338322308744 1.0410003721063057 1.7453279509492514 1.7624445924198422 0.37068771577525655 -0.42211324995356436 1.0807747987121412 0.738858010302402 -0.045382301906724605 0.5058605789325439 1.4057488398001243 1.1032379176413705 0.4896644186147205 1.0372225581587093 -0.17680562458167517 -0.7579511577942522 1.857980824114138 -1.8197995633127522 -0.1229400399683024 0.43644144440394195 1.3785049470479251 0.2591974163068563 1.623872592647361 1.5140672163857454 0.8702037272259767 1.1504765927420622 1.786976940544178 1.678391888454487 -0.5807639655560988 -1.467231376391865 0.7297841579526934 1.4735182821736825 0.9210216731332066 -0.7239718961532497 -0.07545096468488421 1.1150250678532792 1.6888274941241275 -0.7742566735835346 0.6087566656960691 0.9948733139150546 1.353149982645962 -0.591436976062289 -0.051259450858292574 -1.3439776430669346 -0.1350517631370499 1.6506304555674247 -1.7142408006204013 1.6563981710815407 -0.41062233627338623 0.38232541412238713 0.9530552809628137 0.05362708805059426 1.6381397124822186 1.6221995645126446 0.6937427538608574 0.16088669059564525 -1.6675120254337463 -0.6881060713366898 1.179998120278778 0.9002790436157503 -1.5616422249745234 1.9255940482947276 -0.6664951822128242 0.9323782230549936 1.9144526582458985 -1.840291801894022 -0.8484059416813028 1.8703381903599692 0.9455432129139798 1.2308317657258656 1.2714121961035523 0.38234439833878864 0.3787100066033171 -0.4940203986990424 -0.5006922949809468 -0.32179865507332567 -1.7710273995067392 1.6317108914751268 0.23173075170818014 -1.5086550180262601 -2.0801022400509823 1.3399703685676778 0.3793439337880117 1.6435952188147627 -1.7772490766586932 -0.8117598667671351 1.9237148883198805 1.293563253565722 0.7896886264515768 1.5193079379835284 -0.4756470556609694 1.3733492680803916 0.5119172965741247 -0.5624947462560317 0.975117286056607 1.8211057758164073 0.7248456366961357 -0.8948592171889698 -0.36662808891315 0.9431080494711255 -0.7580317744420123 0.46705560946753916 -0.7169525581429342 0.6342468449615242 -0.18520797951872447 -0.9773949885528671 -1.7134525456406162 -1.5643719830430902 -1.8633650629744973 -1.690146563797184 -0.12059101867545621 0.04238936131943375 0.5816388714356121 0.6460595799773425 1.6611597905557707 -1.6686130813084108 0.447766142524314 1.9420243463541647 -0.09594743000829871 1.6278347680778589 0.14470533483763834 -0.39798477864121007 -1.0333095289008492 0.7170162938033869 1.6778495920136138 -1.7916385317520642 -1.342200007966388 -1.9606436579003288 1.7690556421826562 -0.42253214910632225 1.7682684915196292 1.5034974246248023 -0.07119008318208049 1.992688961739002 1.862435412657488 -1.6524296918850008 0.06555460196015321 0.49576638229600933 -1.17393699852549 0.6982868613764718 0.8878646489229258 -1.0923913056624974 -1.7705517368127879 1.4677014181290273 -0.22611947191391882 1.4994391902307669 -0.32201547828892396 -1.3247980426948063 1.4439573088030606 1.230908894178234 -1.4162834302465857 0.5687813356794431 -0.07270813549882259 0.469306767836501 0.634137495162433 -0.204999963355155 -1.543238798782541 -0.39134497346946717 -1.1971299047170734 1.9545283407102525 -0.17423429953491082 0.3789940918683873 1.7457112578366134 -0.6364022292333936 1.489162543031966 1.7791314162741394 -1.6821988308391524 0.5494091865314995 1.0237247049517633 1.0975745915284703 0.711429893834209 -0.20965720613088482 -0.5755291674087388 1.1656404765247854 -1.7263200068797013 -1.6870891235002885 -1.6451275757842396 -1.9400509096633392 -0.8882682386805331 1.8093393492707484 0.11063165336024888 0.5854468647350406 -1.5133660464199974 -0.264624936767699 1.372219105795829 1.408239521294547 -0.8325276458668857 -0.6422953070326741 -0.2850423235540592 0.1738005385296706 1.5987023332878028 0.9117120034790108 -1.440142651780595 0.9673728471512754 1.7976309196940259 -0.9605456234629622 1.1884426975938558 1.3414143465628443 -1.5764137002273932 0.5462056899772613 -2.0361252762421462 0.8301967550245186 -0.5616588189782575 0.7416002229285323 1.9214462937932948 -1.0217563309250977 -1.055230887365033 -0.07358607371315831 -0.3665164988086009 -0.8666302822343183 -1.3992862222894087 -1.5498996277985895 1.2561127817901694 1.7030064199808324 -1.3956266038069542 -0.6328903607881455 1.1246000448557485 -0.6727109247091516 0.8105573840417988 0.06776038907262985 0.10007937941030699 -1.5639578412333592 -0.504002467529464 -1.846247831384059 -0.28108169399946886 -0.3140575372851852 0.35613050535269464 -0.15710380479313427 -1.425914610844387 1.4034404561222897 0.10072583686445656 -0.49027582816327087 -0.5393163215623108 -0.6660736930408067 -0.12903175873578435 1.3344194923374852 -0.7664731357490472 -1.6309083928679418 0.9340648100929811 1.9614585868728307 -1.4512712685947806 1.555877834797228 0.9595424162116931 0.5146932562084934 -1.6328986728630188 -0.6724074242273246 -1.8320699421239943 1.1306736776768882 0.1486428847761505 -0.9414991807041709 -1.0315022974624866 0.9305213378234335 -0.4053899600838385 -1.6515457907922468 -1.7945978664432296 -1.537896808958734 0.22667488986688825 0.3831830016603047 1.2041914935028115 0.9631756328804301 0.10176770902390635 -1.7770262129774785 -0.5445605549570139 0.7325300534267284 -0.5299119791956713 1.271599248045492 1.6926021203536026 -0.4671300856194987 -0.6334636096953381 0.3493679969427836 1.5595944341553272 1.5040439418916975 -2.014120155985925 0.27027185909946333 1.6725976584292601 -0.6908856316289596 0.3816297756873831 -1.6133270609819212 1.4236124287365475 1.7783228458475722 -2.072964817137859 0.29928586845740546 -1.4793585137753267 -1.8506169305534004 1.3117487801626173 1.3076298303743141 1.8669968624111029 0.08926478329716046 0.2663258630574562 1.8756537685715389 -0.024614634300743468 1.2464897755627184 1.8837964462204544 0.2507676399487802 -1.4634423333654625 0.4554769654941218 -1.9483040507664013 0.25958741039161204 -0.22295162170453237 -0.2760204444995272 -0.73048882322882 -1.456489871724956 0.17583661369365866 0.5465342681361547 1.9175001601227126 -1.0554557763179593 1.6979868028051992 -1.6753018389246324 1.367866986319114 -1.773473265289997 -0.2672982481006583 1.5907615025261166 1.3101909391752715 0.9045668059079972 1.9065275677042066 0.5006315038928563 1.5684299652159301 0.715693707726751 0.9998600314055546 1.7844531906070231 0.7017066872419037 -1.7857226921645888 1.447385750228631 -0.7120203109839235 -1.1528034340662119 1.3000609898506077 -1.9269933941925328 1.2657748016875094 0.49918768037676736 1.3560058309195657 -2.062626838095185 1.8703077579745633 -0.45986457856254725 1.073595385979279 0.9497947516083669 1.9593160563585206 1.3805054446985927 -0.7611386289813503 -0.8429401605208866 0.42657629626236204 -0.41202745594037243 -0.5603904886561979 0.6249995362584452 1.0775798024652232 -1.6484770579126327 0.6611212752814646 -1.219137044964814 -0.47488837611036766 -1.0373983332903467 -0.9745736789386605 -2.104472074301937 0.5920518624882946 -0.5966293233386173 -0.8122677336758884 1.4301433439146094 -1.9735164685043465 1.9324501459321217 0.5800379886870486 0.6866702212256446 -0.10003690634214213 -1.9294193215401525 -0.9749059037050855 1.5180338548800394 -1.2418833451534583 -0.565456475208426 0.9773092566204047 1.0608073009793244 0.363745490069786 -1.960307134580071 0.3371274485861743 -1.7628450059482756 -1.248594458717597 -0.60612164436961 -1.04492824760344 1.054183903394162 -1.804949378909134 -1.9280483602363503 -0.013803363331626337 -1.7909837845886534 1.7513505287874358 0.5268726571501472 0.4392907831262575 -1.219680698258419 1.537000140892502 -0.09980559940960192 -0.6395853314621132 -0.904478532041453 0.24091393489173366 -1.5050393595510585 0.6998143944576851 -0.6041236674201542 -1.1793245611901688 -0.4978241546452682 -1.5477443340478498 -1.5448529290755404 1.8773114900807113 -1.3154168414303755 1.5169316544198506 1.07619489045016 -1.0889440643294073 -0.14957236597362528 -1.592679493293891 1.1028648502429126 -1.2875654987427245 1.6204937821218062 1.7323138676857484 -0.4136790353715863 0.5067217981738972 0.02307333553745108 0.5074555739906649 0.5797189847990262 1.0461763401812496 -0.9638622518824757 -1.3158955835882369 -1.3834362140010437 0.26095383574540865 -1.2100406300152362 2.0511580585082534 -1.2663782812587359 1.9634904754179128 -2.2717980429734723 1.8586153557781464 1.228042207181424 0.7706484988890102 -0.9513330133421978 -1.9866037418967522 -1.1034613720600894 -1.7975498258903988 0.4948303846074409 -0.6200174013493075 0.7570850370819006 -1.6813611204035108 -0.2954267485707758 0.9366378531352022 0.13589773389932056 1.5682888030359856 0.4934869925362235 -0.6192975377923863 1.6882085969958003 -0.9074279563759542 1.4433550891445457 1.9176904178909648 0.5477788633441958 1.7304172184377173 -1.589589699544005 -1.4412111155380773 0.2217066267298958 0.42875433244925015 -1.6079058901530838 1.0054639730901218 1.2268608092413895 -1.8652498158069462 -0.990496476563993 -1.2440757674378649 -1.049309343416195 1.1007925801217948 -1.0269691488530188 -1.4550247797470357 0.22538675190305948 0.6967898685800118 0.31664856620212756 0.19172291603545738 1.6870483828245033 0.5738921045266604 -0.9584517831188433 -1.1325055749804291 0.8428108541272062 1.9695968815499683 1.9821045691775365 -1.5601666179359763 -1.1531555007369392 -0.9528814826309088 -0.8697170043091502 1.4885595345699962 -1.0022970035272174 -0.4718168005661524 -1.9100261212317502 -1.0256403788494295 -1.0101585869242578 0.7975768206546627 1.113044790721386 -1.1987266470905766 -1.6840043872483381 -1.0710289542113356 1.0008291920616597 -0.6709845152779068 1.741548868712969 1.726195257625852 1.566749800370072 -1.8383431601545424 -2.2249401458490174 -0.4966739866103672 1.5231974546089668 0.6159042948746498 -1.2520514933238822 -1.5224047833939456 1.2493041283118516 0.38589998428264005 -1.8575166009771706 0.11855403598766669 -0.10813975770324818 1.4170704393472318 -1.610577812484021 0.22843490868020602 0.3713912169085774 -0.5711878093392961 0.7041779534352189 0.177263373657996 -1.4474816738276293 -0.7541695670720954 1.437662128919483 -0.8942508663218783 -1.1580266360957832 -0.6784355288116258 -0.34170267225115797 -0.036171132356125325 0.7935189350806772 1.3128086188801906 -0.9711618632528092 0.09211541839172707 -0.8681579999813674 0.004621296029209884 -1.7257780476230338 -0.7511798945158471 -0.42521288959618875 0.4188853793379309 1.5131966379335051 -0.9332645796314734 -0.8779819544092695 -0.28849242044555423 -1.423746582676481 -1.9286121598061292 -1.7246935528789504 1.87337972441205 -1.697064582001337 0.21149199999755816 -0.4997069288055144 -1.8864129419674376 -1.8583111830617356 1.0537327258755038 0.6282714367870003 1.0490599184541622 1.1841928367538304 1.942434881315999 -1.4434479707963057 -1.4463379028042465 1.923759096762411 -1.8403058879796643 -1.0518982333841678 -0.5840410860350747 -1.833101828782325 -1.939249420785725 0.6269099620096606 1.9016944885765255 -1.7043287797186366 -1.3454082101188387 0.6640123180295397 0.01142665593328071 1.633467374628237 1.5132569102006628 -0.188970696888752 1.7208001597403213 -0.2870704272752491 -1.7495476852845697 -0.13709008691095012 1.8640693965015334 -0.1556222767344906 -1.3786554334450978 0.6767948140232631 -0.19252645511280253 0.7713126650224117 0.5374749890080761 -0.6467089121213243 0.7663378368934831 -0.9131053923341029 1.0169931452914713 -1.2235667844554625 0.7472466833316425 -0.2684583198370947 -1.3535903174309487 -1.8850657579950574 0.7596694290698772 0.34609090957892297 1.0030695287872662 0.4117579237526765 0.4534949388722559 0.48912663149804136 -0.5131865917633761 1.8153781871029442 1.4168227402753886 1.7613079517956494 -0.5437363988031407 -0.11077593610218883 0.94725488391245 -1.6843138892483673 0.3799630384897627 -1.0181189262538717 -1.3028887077159639 -1.8677938352940662 1.0285570328272655 -1.8831428602042084 0.797299102056 -1.7721272750217056 1.8906644730595323 -0.8260783277106097 0.26700625375218096 1.2412133232232536 -1.3057225650896804 -0.8028641353688065 -1.8417959641890633 -1.743683893452067 1.3282821602152401 -0.5007752288956546 -1.5758139590766076 -1.3777099662122967 -0.5893322401483517 -1.7324395090263367 0.3805294559995497 -0.2031638657270381 -0.8632329181300319 0.8238959347906539 0.40342127512032766 -1.6658795948151557 1.3578929402283504 -0.9866053340987055 -1.0477130883378565 -0.43455691276099795 -0.43163083459567164 1.354430455558394 -0.6730018459070989 -1.6740766691269562 1.5922775103074711 -1.8777306368503364 -0.3989225182132575 -1.3285682425146303 -0.5525243127594831 -1.2402955105853837 -1.2717396054649865 1.5463250481989332 1.2750588549946364 0.24240927654450065 1.3332856623646945 -0.4741250087996425 -1.899842653440749 -1.4036079413203033 -0.48676500488097185 0.5297579576444594 -0.46311960003054986 1.9169302155577554 -0.376927273210112 -0.7408981790286674 1.7237449815346364 0.0031589356806971604 1.635576305953694 -0.38881330771060607 1.2226531649489916 1.5314454577395704 -1.2068317826041612 -0.5524210212066426 0.3316555515775661 1.1853841223010029 1.269676759472884 1.8496420161466942 1.3683931946913306 0.5644785775115944 -0.6753871950460257 -1.6563148061839161 1.816870402935325 1.5619625973960347 0.5947742606218401 1.1063175925220776 -1.35678118053011 0.5834697046873489 1.4557941489581763 0.28928531670462004 -0.012981740545583233 -0.011550472748165543 -1.8885507478356247 1.2084983951297246 -1.8440379807327174 1.5965897018202317 0.7946342133345332 -0.13385398048155953 1.2216391532624362 1.076667860383119 -0.4074716023094864 -1.2058098074466008 -1.3067395913488362 1.0791303550427271 -0.409842881400288 -0.2879432546490318 0.7388379900311003 0.32937193927758496 1.5418962739992033 -0.7286663075228867 -0.1574376157763698 -0.8164903016911008 -0.08106440047981259 -1.3544652573233567 -0.6531073956963215 0.31170843768479717 1.3921759951249564 1.7003141291478934 0.060511409070925073 1.3608053447025314 1.5543584458267203 0.5570820652497545 -1.812145674422262 -0.22852061374644705 0.6184027449263465 -1.838964967826144 -0.8029444788167769 -1.0850190453080077 -1.216193761986628 1.0531977116704163 1.5010711749984127 -0.678550363647266 1.4482959158243245 -1.2394350180230522 -1.1269184986677603 -1.3981657152888936 0.9748771866054426 1.1164024061834428 0.9202256132516218 -1.9253441192239442 -1.490438223801641 -0.9152215692277125 0.69445663719461 1.7006636452785378 1.465789949556356 0.4388420276911246 1.3394823034343757 -0.4050460252578286 -1.8382459398865083 1.8324144346668108 -1.1731817555850759 -1.7491511578907206 -1.8735259182941812 0.06148309195211728 0.19941400046745156 1.4028629472759855 0.7436658034599857 0.1229047287709022 -1.0107902026556548 -1.9377065435904002 1.275528866070348 1.1188902953414563 -1.23422968558561 1.1937114671446594 0.9769825539437583 -1.804811069580043 -1.7072358829574337 -1.3800558634370126 0.14642439441533492 -1.1988029571759007 0.3586576494362406 0.8992525935519664 0.1570436643947723 -0.5164355096702286 0.47322304403303844 -0.98869057227483 -1.8695221913900997 0.6560093038214719 1.9332328288098708 0.501281550095586 0.46139038665625726 0.8487469316887039 -0.6542130377458767 0.5641506961609312 1.6038081433140874 -0.27118206149921337 0.5710399996845795 0.41633544439303494 -0.7827150881670206 -1.8540798779810717 0.0683250442139229 1.3936875647158409 -0.5262282076424641 0.6163151697893474 -1.1725960519748955 -0.8826756271391845 -0.8569755385303718 -1.234208374578552 -0.5881614841986474 -0.527872200698887 1.5023239173269631 -1.6653675661825063 1.4522000673747248 -0.8395917500412239 -0.8598954024214831 1.4834838032942632 0.033424210366009746 0.8610840408327923 0.44535578345229226 -1.213325362329044 -1.4565340914431362 -1.9815366641654055 -0.03570942312244593 1.913173881833571 -1.0134000660793803 -0.3360435873700901 -0.38264705988763525 1.7982183141293646 0.0035374095351584506 -1.3597170045593412 0.012659467054545065 1.0371677694365347 -0.38897271023187047 -0.36044469130131185 -1.9973761997240216 -0.9261154448602509 1.1762951905544488 1.0485350549298014 1.005048133640099 1.361394846109943 1.6149763597554327 0.19739010290729847 0.8647838140178584 -1.8409083305743246 0.11652890884946805 1.127351388381773 -1.2951519918639405 0.8604880879968578 0.23580117225410868 1.027459172279106 -1.893772702947881 0.1419227773858733 0.9145850202249333 0.7746256541156793 -1.5156201781611154 0.37482392642142587 0.8555223146703256 0.2903266188596388 0.5004434140586179 -0.9415777789403846 0.9451107249832048 -1.6522947677620559 1.2752656542478247 1.693669348151536 0.23541411005851268 -0.3942625285787245 -0.6405716855532163 -1.3006171748622697 -0.6924449603019813 0.7583171695169746 1.1169785651544095 -1.1589973636186333 -0.9622308068440557 -1.861109039624596 0.09824249415862403 1.6091012372977127 -0.7160888442032354 -1.9813012293322325 -1.195863823173257 0.6230401916731523 -1.8407343244346233 -0.2618462460197832 1.634202798687135 1.7351897468417312 -1.4896002817194023 0.38053838227353376 -0.3426337699818222 -0.9625860851851904 -1.3214117028073427 0.20415981827582136 1.3277799482493464 1.8310072285449261 -1.907763721330012 -1.3293670013344638 0.4449789478004633 0.6016616128910252 0.5292300433292955 -1.2661330265869888 0.5943012130113711 0.2114871571906084 1.570111546394599 -1.6061744762146737 -0.13889534362213649 -1.3764614041061434 0.39073077349659135 -0.2552175074496627 1.474146128425086 -0.16342618382477517 -1.8454426100043737 1.1053250693740615 -1.2381400355168892 -1.99057965421421 -1.7334344965661224 0.40710917728563806 1.9813539158997746 -0.5914369045520457 -0.2580913760575615 -0.3827790331472392 -0.16659134924505878 -0.2614103710372811 -1.70615552942443 0.6255081828718831 -1.1381143622606453 -1.102337860121657 -1.216612745463676 -0.13850454026183243 -0.6416006827422578 0.42344995936912355 0.6894931032167184 0.03895730714136539 -1.3411660189049228 1.6991394330356124 -1.0677466138193208 -1.4134361165324816 1.630305713823259 1.2768323859556772 0.9704575949281448 -1.4938856892686947 1.0510889930953546 -1.0372895995178193 -1.5165148417085998 1.921470232485 -1.1235152385560498 0.8458687182043416 1.3557668936341642 -0.2749664500330302 -1.614884069445444 -1.9443201226498947 -1.862384888195369 1.009254330196014 0.16894127722962715 1.7035145910472496 2.0791432863869885 1.8522943183034992 -1.6333801400667853 -0.04370481276088668 -0.32334722246310094 -1.5305922531534253 0.20374117931678995 0.7745763881704131 1.672255736043022 1.7247466702387901 -1.3692748347185493 -1.4850653231929622 -1.446083276843116 -1.7319968749202042 1.336480464253668 -1.9513665255287747 1.3717913600487388 0.972327132207144 -0.13775901311925778 -1.9080787707198639 1.6004885388598575 1.452936160400094 -0.27206954419261614 1.6536400339613329 1.9412329635872787 0.6898253604959689 0.8724028105537832 -1.996107487057921 0.2990409507243455 -1.9708469569422509 1.5596511684050698 1.1366342639447506 -0.9462779186583676 0.6669184650285672 -1.2506342505081516 0.8055208272771758 -1.9349826413535336 -0.23218726306322088 -0.7165497729710053 -0.16145287799703367 -1.5546050307944408 0.11828996709472037 -0.3577158669933273 1.0424194461852354 1.8548197419478243 1.0573255341978918 1.5289599942701526 1.5306685205705473 0.07429738239379415 -0.2375861934925126 0.5515842982711355 0.5279664053149459 -0.8836347641925437 1.1652244531823854 -1.813768700839689 -1.471004096371726 0.13288799626825287 -1.7850692788287914 -1.3668177233207779 0.28473028839504827 -0.5243461821223024 -0.29983377233367375 1.0299082011470277 0.6083489803392887 -0.2825416044642662 -1.38373393952033 0.2866317993946712 1.5855471137472748 1.0503070625793534 -0.41505683008976635 -1.5777212292473421 1.2440106071544543 -0.3017253492503725 -1.6210849073883082 1.5273288452590978 -0.9612971088352009 0.9383005942780878 1.0403803983698294 -0.6176078925822466 1.8678414475332228 -0.33098048331592833 -0.2971176785029105 -0.6717695792513978 -1.0212954981442102 0.4262456025364961 0.930470407638569 1.531514179911782 0.8462164961226133 -0.49554930742075104 -0.9820246763559733 -1.7972895571693794 1.1099974222299405 0.16968825186633932 1.2127856343594594 1.1459739485962877 0.9540462771888718 0.9661779380275946 -1.15909501494937 -1.6855554975894798 -1.3426394884313702 0.5894094248872556 0.48820229911247914 -0.5943941709249352 -1.0858050743587953 -0.19721379213149484 1.6250752254736203 1.531970054227696 -0.7153935622959825 1.1502786343091245 -0.2751024102525223 -0.4394996596177692 1.2318379727844126 0.12486836655494271 -2.216638660268746 1.5248882144754823 -1.8900636262081245 -1.7896000205395237 1.443379644977796 -0.1308623791990484 0.9614516701342855 -1.448514216001811 -0.7753353266051903 0.27061060625893113 0.1862424879986915 -1.3728203325139419 -0.8155779003913012 1.2835382383496403 -1.3077637589992446 1.3327957776104256 1.3047936434875036 -1.6209577045795838 -1.3179896067156975 -0.9791010083441969 1.362038702166546 -1.8161220392414175 -0.9552905020577521 0.9388547476807146 1.810985978366058 1.3863099875794849 0.6150009592810675 1.0055851924697576 1.5614017922165355 1.550166406176551 1.7335208459908185 -0.23701653781392706 1.5576407950170907 -0.42742877394624795 1.4090129815193109 0.32435046725436706 1.1173625641443576 -0.08936491599005464 -0.21963922565171687 1.2609177135711966 -0.3714706748585031 0.7319326273149953 -0.8260023728534546 1.573695293782144 1.052409967747443 -0.6452233420800859 0.532731960042355 1.5612892572777899 -0.4582910055394257 -1.0988259859567393 -1.8426242302076041 -0.9816986478266202 0.9750949346756002 1.5394569202761292 -0.9977767513946845 1.68267464341746 -0.5564640341860009 -0.32129564685090983 -0.7629712131173614 -0.1584722931652538 -1.223943943207753 -0.5763383250689968 -0.8099455255590507 -1.234459751877827 1.1291209590637714 1.4046037166360614 -0.2913230506112907 -1.0413752484480958 -1.568221768277359 -1.6632699830202453 -2.009808029106057 -0.7351403924225028 -1.2250035312967453 1.8695459058715653 -1.5074497635107929 -0.5581392526870773 1.6962687355333825 -1.248277071304001 0.3973671724540389 0.8130505929701276 -0.7728500534425243 0.7907694825467269 0.824362089407472 -0.4419417460077202 0.5131646855078681 -1.9379730678018374 -0.9340688431736601 -1.3356722997206698 -0.07483101088887628 -0.11058530893324718 -0.4826438099840065 -0.159113614618686 -1.9879747656753264 -0.3242605614970586 0.19378660254686303 0.991201502170441 -1.5688612082619686 -0.08722038597696104 0.4263790330668664 -0.4448180131897238 0.08822398985028704 1.7360461474725037 0.9798032794106634 0.7012555841221837 1.3343822926829505 -1.9685191170495977 -1.5917203157386943 0.640156112977699 -1.4062583497123928 -0.8994581639826635 1.8155184110144102 -0.6070659507430994 -1.5167461189489386 0.36929195398526066 -1.667470278953119 -1.6596038088915894 1.566545729765698 -1.7542092464684809 -0.5071458046868305 0.249519156954526 -0.728046586425592 0.9184665639276256 -1.1825257901749333 0.20424097893429838 -1.5339052707463916 1.2151253555963069 -1.8020617705932285 0.8026007398806918 -1.5090603534259004 -1.484331484442084 1.555626215242059 0.06520908642010463 -0.8204618699301328 -1.4617969236409485 -0.663958620468881 0.9679541128046033 1.5084536030914772 -1.767649005917253 -1.1389598021113907 1.9343382989726794 -0.995968256390484 1.324625665204595 -1.6190015061300191 1.5025521682967586 -0.4668833712311173 -0.16698199066898123 1.9813083046661 -0.6451685313858733 -0.5265414314311178 -1.316931194936308 -1.9108324109275294 -1.6756706450836378 -0.058119556259065376 -0.3475889506363949 -0.9757825838031459 0.1865879546651978 0.7847812831657632 1.2168397437663225 1.2703431811786512 -1.8440983169811307 -1.4735968405751225 -1.3869703199856536 -0.10836123435238483 -1.6222678180887584 -0.013686560997894427 -0.1318816104316662 0.007302298522343128 -0.5899398959451563 -1.9075010650885302 1.0932819037500359 0.8191824438084443 0.7110160271117282 1.512664764149002 0.878048024457589 0.9142883958577502 -1.0943542246224904 -0.6703003025959511 -0.20985070117582694 -1.9187939700015038 0.48448515494894895 -2.0708758142327026 0.1342035527044737 -1.9058329035808113 0.393475098337489 1.1730058111819182 -1.560874970074939 1.9304499090630964 0.5183461030110713 -0.18404371882152953 0.06425146937798239 1.039673564326234 -0.560669115330399 -0.8114662696635653 -0.36435808513230356 1.4445351608541306 0.5972930768083093 -1.2817512499294672 -1.2058210626167178 1.3879706751930105 -0.9577805766372859 -1.014632097115592 -0.528811435032739 1.8317842205657338 -0.153259193704389 -0.25723349461256256 1.8831185743260719 0.4636543188504371 0.9931370634192141 -0.121944612602241 -1.2320222400816268 0.6593177145001327 -0.9820530460534922 1.9458481072211644 -1.7853751822052606 -1.8540276224365597 -1.4968663767036983 1.4368485204598762 -1.0153253451547706 -0.3528140203031185 -0.30625429582095437 -1.6092263459492355 0.9100321115853627 -0.22805211271096493 -1.018219012851123 1.7628947808678195 -0.3338977235779476 0.44312280862774045 -0.2598332183107289 -0.7869042870098051 0.4110152271285405 1.4003888424269813 0.946024774130868 -1.675567386671114 1.7932116801475129 1.6383821381597796 1.1243124622674792 -1.3145709702433905 1.4860884793471156 -1.6575203699957204 -0.32040438559468354 -0.367435531713633 -0.554839826535726 1.5109269973038622 1.7881390076881447 0.5792095709660311 -1.3654946160844201 -1.0093474978150296 0.4750978788677262 -0.28487220965779775 -0.9774558166407479 -1.6612010299719002 1.043095806406163 -0.20893551035637156 1.5880992040828534 -0.19950158028509904 1.1184589583750502 -1.7579354278619888 -1.3031727704684 0.8047681101045543 1.226103908456157 -2.0243156387372228 -1.2652086983919764 0.32229885830676147 -1.0112238237375049 -0.25902977198118726 1.9043744927261153 0.30610707992785935 1.333377435357331 1.4755389133292516 1.370167096697534 1.4786624701456723 1.0962073331704958 -0.3095035746860216 -0.8300107443514239 0.5604984378477488 -0.18384076073798772 -1.418848084365233 -0.914829503909849 0.52923601282872 0.044579856144165174 -1.8282142341399705 -0.13125204630673792 0.8322878160918771 0.05012643798797933 1.2209456571615154 -0.9571340205971625 1.0955796319359126 0.8709326480045553 -0.3143182341655972 0.2149689464548334 -0.8496914391616764 -0.7335969737129612 0.17155593279379372 1.8324434028268026 0.47684758441749264 -0.9437886936595826 -1.2786719389597596 -0.37848337077884886 -0.8218294694993578 -1.3636420763055184 -2.2822053414667374 1.8743308263306169 0.7048529369326265 1.5484226426062913 -1.3046330117784903 1.0080979660991596 1.7383887567672043 1.7146915395894384 -1.4481643984565924 1.433801448644157 0.4726471318502485 -1.9269644656170162 -0.21427831150917553 -1.84539075682783 1.6266183089342179 0.199702582134124 1.1894814611171003 0.5997706084751792 1.9313958769348294 -1.0507366794932747 -1.8251709058240904 0.5778837801618919 -1.2838648715463277 1.369754343510865 -0.19052422989396398 1.4781632953451591 0.018715302972292888 1.1514210990641638 -0.1450527170667755 -0.5218515853600671 -1.033515200962225 -1.2214724898820333 -1.276471712405974 0.23879982560936347 1.29105933644351 -0.013103710559560425 -1.9776360044474552 -0.33750373336918393 1.9437053145671794 1.184929105729599 0.3623105880246235 -0.24332583605546082 -0.12783465736546962 -0.6238549458472902 -1.8609515611877838 -1.8778578550479463 0.5953411013876686 -0.2496686187886497 0.6977534307753791 1.205340722620308 0.5940347129996614 0.62551278221587 -0.35704251079802374 1.4893760378099308 -0.473944079399893 1.4729651833671382 -1.1125298819559601 1.736284049354532 0.3913477916109281 -0.5646893664640412 1.6564145066295701 1.4561171375744375 1.0639418124159539 0.3191727363979958 0.9687697133204703 1.6201267996236348 0.35560771879435643 1.4031527948162568 0.517043470301445 1.3092920196618911 0.3105854656739651 0.6321085649899663 -0.17850324668828774 -0.6828199979518844 0.9275170391493832 -1.354133717121668 -1.8099968334933485 -1.1484094040497654 1.9372805501110606 0.3306478211906776 -2.0188614908829887 0.9149756252008681 0.2817947093920363 1.5137403142727683 1.043150345692371 -0.27567326192482994 -0.6026305364892078 -0.022702688361077642 -0.4010219774364639 1.3943361560301513 -0.5908079175003029 -1.4701540123159982 0.4759568868244529 -1.4366292795843336 0.749712130487969 1.400757061414356 0.4429075923297994 0.9268957170793486 1.417555658788538 -1.9899676503633734 -1.0751993522095813 -0.2682856427568917 -1.6435833991658826 1.5014789059414273 -0.8937136929280808 1.3883663967172726 -0.39462777583658976 1.0975374048330446 -1.8794655044148258 -0.8228502749767801 -1.0924496337385288 -0.06713723399761584 -1.7822821731517982 1.0065025844377808 -1.9931518379719246 -0.8481755582896123 -1.787900317768514 -0.2991136396832323 0.14886528766574825 1.479643602440871 -1.6401735393666361 0.7215156374444138 -0.8244687234558504 0.44602029516641334 -0.668642531072877 0.21568887860478764 -0.36385639650272594 0.6733516146466201 0.1503066940325693 -1.631846857370109 -1.207393258103358 -1.044453569138144 -1.0595277781284695 -0.9511304557312347 1.2861946323017879 0.49281201392138335 0.6091882324471755 1.516621045178384 -0.5200732790228385 0.8026231205714837 0.9995937608893372 -0.6444403751090874 1.3397901897664384 0.4210502094846911 -0.34844895712831164 -2.012059488589332 0.5981391841327279 -1.7887528911721293 -0.9229572644713768 -0.5248132385776124 -0.3773397273126008 1.2497350131475784 -1.235721069757516 -1.1669256110797426 -1.2764770313367213 1.3897663016369588 -1.4108700134843903 1.2851974776610575 -0.9429576509106034 0.5684634965169277 -0.5606299074739292 -0.25903443987011915 0.5176597525578885 -1.639198304134471 -0.4614118726373141 -1.6616541068166968 0.8115428756271214 -0.5893887379508994 1.594461542870593 -0.9113335981851759 -0.41233638459123517 -0.1862366545579515 1.2425367515420072 0.7772012096460204 -0.06075266630091335 1.028335179045283 -1.7795767139875032 -0.5981619612100175 1.7468304145308566 -1.2813079977286157 -1.0884884129221177 1.7878839597383305 -1.8486413246476796 1.7543442205005233 0.9357706611034361 1.0016800483952593 0.7547779576458636 -1.5643937585932095 0.6560430915304103 -1.8511703633971275 -0.4254620829035232 -1.077512801012865 1.8479969757007557 -1.2468997950514953 0.7064689605198566 1.506493772547853 -1.3694012798279245 -1.8788874236770736 0.25677355494624676 -1.9404567796888827 -1.1854006870353422 -1.467634254436091 -0.48771243685761273 1.2897267497890235 -0.162888226022541 0.026384799894485764 0.6524399188136879 1.4186927559974176 1.723646676122176 -1.737911195644349 0.9800409046111718 0.16778833760104256 0.1796661304009123 -1.0442600622641522 -1.2803569543131998 -0.47110413593116174 1.4899213933899893 -0.604343336321666 0.21689212784464917 -1.3287930300927173 0.22247698960193116 0.5200498149921536 1.562384115492967 -1.2798375652975087 0.4152187357724224 1.7262911132175935 1.1320206231009537 0.378273444670659 1.1689640487834143 1.3249117988122479 1.1035181160330751 -1.158331516484416 -0.5334500028283865 0.9029015920657578 1.0555943907863405 1.0163291690935032 1.6813762659158076 0.2733635334783069 0.8335038517062703 -0.07284027673414309 1.723041307942304 -0.2758785977129548 0.6348152711184798 -0.10828402049960319 -1.366454718761213 0.24560560925587507 -0.02555367663801545 1.3813498640814346 -1.1530256758781632 1.5300632856598944 -1.5042062276670416 0.7797154544475281 0.3839595070500935 1.747796041937248 -1.2349972141513534 0.3041296922190075 0.21516424415938049 1.5828519107088073 -0.8013121536730697 0.9659830310998981 0.6156326848153496 -1.337461923735742 -0.660331606450736 1.886583145242773 1.9422469376769238 1.9180123891273848 -0.7938882483216355 0.1776053961827827 -1.354279623214699 -1.7285611559243097 -0.8907170440026615 -0.7155766590834295 -0.7567285833212316 1.9024073306189322 1.5076571057129429 1.907493168035438 0.4810926531995161 0.3871047288347739 -0.06327250315983922 0.21198327577962678 0.45784993130818374 1.1954124074018313 -0.5527493770155889 -1.379027965702214 -0.06131057481396633 -0.5885078535694938 0.6277467483016717 -1.3363720553922138 -0.7731145101357991 -0.4698650059796402 1.3633427232976318 0.8769146929797419 -1.7936266979613555 0.09372171485123783 1.2394730398154818 -1.5014798375061913 1.592400373532285 -0.9601854548376418 -1.9085365244757817 1.9198332967720793 -1.6587391140496708 1.9251518713347688 -1.073228082738148 -0.8585950521515403 1.785668317353456 -0.8468937596762464 -1.6518920480369033 -1.1885935519412625 -1.7931971988590576 0.015802352408248534 0.9961452229708855 1.3797731187399345 -0.33916365914113844 1.3121607243000915 0.6840386510560003 -0.6598849355037917 -0.14028667757730523 1.0433195740959271 0.006142216601245619 0.7223603803437381 -1.3293193331704893 1.1881323264485297 -1.456247118311109 -0.834309090977379 1.7151516581663244 0.487537693299175 1.988146032212692 1.60133572784584 -1.3123106911080786 -1.346263543559304 -0.4275131637894021 -1.7877159767863413 -1.1063522745718173 -0.16167132557952946 -0.3317645398273386 -1.5761982824798824 -0.6560161165672556 -1.6690346155664 -1.5799946691155542 1.7895136936137037 -1.6302400597323918 0.318265678781701 1.043685075256289 1.0698243512997376 0.10536252535115222 1.868202582756625 -0.05604668118828879 -1.5692434494822562 1.3340486801764457 1.9495661215936793 1.3566901750796336 0.783614037235199 -0.40156258426202945 0.7921997226450047 0.37430222444059164 -1.0246579672620106 -1.0275784425594077 -0.995258552471118 0.10351672974506057 0.460450078384512 0.12019222529727677 1.1791825966786553 -1.8772837535150215 0.9121212696269523 -1.595698322836579 -0.21477058288527992 -1.5555461574157363 -0.33041229056115373 0.09934703821793968 -0.6701935865811992 1.4518923100795393 0.4981045787787249 -0.21476614134738933 1.9112563500851196 -0.841639931010627 1.5787453949726475 -1.1384181419352002 -1.8927289074153963 1.076785674942114 -0.9104181387636557 0.984253922310648 0.9030736569892368 -0.7482395911318115 0.2207042984727161 1.582940937352915 -1.7076709327424107 1.1124548139504054 0.5982648179241318 -0.7567802386555877 1.7479489710997478 0.9860100331623269 1.1409529765941175 -0.7027148580053382 -1.28593310659729 1.8081062618566819 1.6650460706124701 0.2769323841602453 1.61685289732688 -0.19660438517222106 0.3513384396867293 -0.4520305846097759 1.3409728689695815 1.8520340121840582 -0.4332766637635631 1.8365277119157835 0.5917098897779092 1.3353323037607543 1.025882771951796 1.4396245811428048 1.6621682208269364 1.3535835871975679 1.2914539463742976 0.44188414830604417 0.4590267998998142 -1.039988465236726 0.030376382993271125 -1.9316238897692932 -1.128620499884519 0.7245084493068824 1.377298396896597 -0.37028070346791536 -1.0806885941370366 -1.3175786758121872 -0.3523194992681913 1.9121839778706007 1.2875265073977888 1.9742836041599277 -1.767243206577096 1.5615117363931852 0.9321305592494111 -1.562613353096845 -1.0861521033805537 -1.710501846194494 1.8209257471505298 0.8688091406493469 -0.3717707475199417 1.4563632828888062 1.3412694942608312 1.0957674805778446 1.8532564984163185 -2.198682265541301 0.41747746720603857 0.24379024778822303 -0.4336334219211124 1.727372377997782 -0.1949141159525211 1.7887317233098077 -0.27919960266479193 -1.862260205691158 -0.751205787116673 -0.7670002766972746 -1.5917425309630855 -1.8162539802499074 -1.646254112731991 -0.17945775617901658 -0.4026792740870187 0.7033839488296186 1.7627529335714616 1.3121807213664798 -0.41730659477868465 -1.3855870892073925 -0.3827458381973818 0.6302668008358 1.1102602476474117 1.8519216215242442 -0.047772271839285986 -0.5748738430491568 1.0615504051386864 0.5131198523379792 -0.5974960904616903 1.472656087955884 -1.8479861211802189 1.1601294041784371 -1.3545460048262723 0.20163833304772158 1.2689767263394385 -0.5092136498515274 -1.702770435077577 0.7538206852029558 -0.9729730957294279 -2.1528222517310986 0.8460548302441054 -2.0329921329517266 -0.5168084337914006 -0.03647718331358374 -0.4165300927451208 -0.08296111409309964 0.55464214853475 0.40262857325863827 -0.9889224726739608 -0.4994058556196251 1.946788479382011 -0.28592310446113955 0.5957149437257203 -1.4144784861116981 -1.1305935256744162 -0.26897663938716065 -1.1593281412695224 1.6578343672370333 1.96192386323355 -1.2399568945002302 0.1251233110694564 -0.07420747746314824 -0.7507403184527784 -0.4546062274454581 1.6822194064748865 1.3661111690601808 -0.3937347764267026 -0.18401330208379482 1.2710004046921037 -2.142674312750606 -1.2130200858033497 -1.5731951876118984 -0.8412274224402153 1.1702725393118643 -1.4397163607084136 1.0805873053426955 -1.2838009587223282 -1.3800876444891872 0.6428638867361982 0.3259598302112111 0.9505136708603508 1.7590279520893244 0.912658601612765 1.8806945812611557 -0.888714578649084 -1.1789364182932047 0.008401968962087518 -0.761045020636496 1.8612410434205908 -0.35800561058276087 -0.004743331205065212 1.7243722938001387 -1.2592601983931748 1.4985758567315925 1.785413323006464 1.5790465566008198 -0.5260430086224018 1.0510233022552844 0.7520476977514104 0.26596850357982066 1.6762437336429619 0.25000868188154474 1.3788248948835506 0.8079513417741607 1.66292193053444 0.3446367100961281 -1.8386638132037134 -1.5071435476331325 -0.6793879313373624 0.051525596770211526 -0.9755910317013915 -0.17431325268997788 -1.3820068391753597 -0.3861422920987878 0.19877884273027915 -1.3752439137283057 0.9347754535784938 0.2628748026939235 -0.09734794151184908 -1.0534234019197757 1.035430760871043 1.3248377948978118 1.238717203609054 0.737312370100459 1.0486378297728145 -1.1440123009891008 0.7732731737044521 -0.14600925450632146 0.03600512500277038 1.6517042267267519 -0.895853112906535 1.1358205750692223 0.7142353830023466 0.6542329708963566 0.27002181925731705 -1.092030893587328 0.6866702459811932 -0.17177948767510318 1.6053383447485399 1.3762046269452364 -0.4733631542770704 0.3127983919688195 1.3381050034744308 0.08726679257986901 1.540811544963358 -1.4412772531765599 -0.6934820445706366 0.7997606135306065 -1.5797639594083925 -2.0604458322584187 1.4149661606116264 1.261766954613821 0.2232212910724416 -1.6414458979529625 -1.4107765198872222 -0.04276600475291261 -1.1265066808050133 1.4597852942731742 -1.6441717890490724 -0.026636193815880574 -0.7911033253033539 1.4362082189898226 -0.7688646411367083 0.5868989780844848 -1.738716698071701 0.612402653408072 0.28943602550670894 -1.841511023738962 -0.075360136151869 0.14756938738269207 1.6002350847973585 1.4523552177389716 1.7674460095884268 -0.9436624317366845 -1.1165365592659573 0.6151164337255643 -0.09258083409684607 -1.1257582826700032 -1.1187343833318697 -0.7528859734705019 -1.1095597566708948 1.5680778910242303 1.4497555417525734 1.798669755849461 0.1301299035151696 1.1780143947043547 0.2949395774027587 0.47506047558687775 -0.7770335954393284 -1.4126464160936845 1.1815503297482535 0.29374387612873737 1.018483917018591 -1.5637773418877796 -0.2875481370592071 1.0444424992846262 0.7775115990887188 -1.0446766911470629 -0.413007682066021 -0.16435069378170222 1.7623212223186355 0.15305314089439928 -0.5980859551563373 -0.2478637437990863 0.4125710523793265 -1.9344411203915164 1.4642869702332186 1.0646766947525843 0.21952747318955163 -1.7134914085699404 -1.1790106391131683 -1.6377942377907002 -0.3734122648799744 -1.2647538242351586 -0.6182645558759781 0.7764160984319468 0.9858120887286095 -0.9971820768280908 0.8742676148734716 -1.7275489485225863 -1.7790251449787786 0.8973906339850896 0.04934259010241566 0.7388257991939705 -0.07973416151733279 -0.06544045559193411 -1.3731867960004862 0.5121717012500441 0.47595825244333156 -1.7054402016195171 0.38017694886280834 -0.11867514359772258 0.5866331277100292 -0.03647965288402844 1.9302884025708222 -0.15288124751343665 -0.8088105448263668 0.9518409649610726 1.2533712431859871 1.1229639660852808 1.9359728291058926 1.0106372615317505 -1.588777805897001 -1.8959803001236408 0.8055890778310986 0.34595435433066374 -0.6489399193316375 0.2844915582251023 0.21735874691441326 1.9850903418163437 0.3481056355701036 0.6824797565648174 1.0411670920719556 -0.6228286687252788 -0.27289207636588914 1.2290578114407422 0.9066134857102693 -1.8305557401129304 -1.9445628742221952 -2.1609692794089272 -1.8328622521653466 0.6516311348708225 1.7031948066183853 1.280925384339617 -1.5177602976755886 1.936488690332299 0.41427449091763374 -1.3409054995956093 -0.730011631243034 -1.237628614178077 0.47468923999281254 0.9831592893876347 0.001400388711033357 0.6344694064390001 -1.16806954435653 -1.4504172083764502 -0.15834910931122823 -0.21672862352420985 -0.9497381774873827 -0.8313540461963685 1.8958387222810662 0.3730295528673947 1.6187269722776034 0.3488476849199979 0.24021152753538388 1.5843850015031051 -1.8791532018007706 -1.66881162184401 -1.9009086730386373 -0.4916605198936457 0.31493751420064287 0.15233676202368743 0.4608721458328004 -0.08160863910912193 -1.4295519588007501 -0.501851087056907 -1.7532190725329735 1.4696294187622436 0.4062532049398668 -1.0190118731016307 -0.4706207611884873 1.500215740824132 1.460796862640617 0.05480614861466128 1.858484761626187 -0.3422819726988043 -1.019044463076329 1.8478764587321062 1.556840485147007 1.7396556105216365 -1.1008349671470428 1.7543168257042763 0.673253660966566 0.7800831993408025 -1.703078808002774 -1.6404389590846948 -0.6394557252095386 -1.7740002383544062 1.1825769094474365 -0.62912944141601 1.7534255149425482 -0.5581501190249885 -1.2900957712959646 0.526869821977826 -0.5707970775048183 -0.7154163225616266 -1.6624710328936843 -1.572561468053701 0.01678994868317294 -0.5149858011024692 -1.128693404749994 -0.20612576855725745 -0.9818308225509821 0.5579613454724704 -0.9077306227736591 -1.2295122925493516 1.5471384826984353 -0.12433028175802308 -1.0775266616432617 0.07440448303821215 -1.451342967996431 0.8469032257831539 1.2787598780415907 1.8139868951505935 -0.004194797155073109 -0.9431954775594166 -0.3795061376089651 1.7571315581160767 0.26263428236521236 -0.7804188592581921 0.19169016137249875 -1.6780686502168523 -0.6766226111973032 0.9468532648467467 -1.3958453417638985 0.08169206985672829 1.3171070613142317 1.8998220284011933 0.9206198266756977 -0.3018467278112984 0.4542917491811098 0.6265123012001527 0.5827890316586588 1.924438782166786 1.8492471126886567 -1.323428683226808 -1.6761474400685956 -0.9769502207827203 1.8154783689453986 -2.042924313773261 1.8794140570298612 0.6799949197806441 -0.14387521642505113 -0.3586790526705359 0.26537908111003056 1.618582042170495 -0.5490827769465105 -1.334926070513242 -0.6336795248545218 -1.5033311724799503 0.8524991767332304 -0.32844653307842464 1.1642590658069214 -0.8054561176673473 -1.164329314669128 -0.22192422695885214 -0.5082340353740075 0.7107408528490615 -0.6747707230248586 -1.928669873008728 1.2735169352193991 -1.7497251996673724 -0.07437436351219025 -1.0508400758371343 -0.024696511805147116 0.6678384341593242 -0.8899549957418896 -0.7878826979060968 -0.18178725686376587 0.5870066117270131 -1.6358265036682589 -0.6336232342528375 0.22112938684038055 -0.3956430405593697 0.43068238927216707 1.5038471745151007 0.2988847506912437 -1.3745704598058908 -1.7818749250570607 1.4863071380311288 -1.079042106546737 -1.346030265907827 0.9214919205832217 0.8688016002184286 -0.8669359710682966 -1.8219638262912425 1.73016331848834 1.4937636364344462 1.3450845438536985 -0.6199053070046753 0.38794308177374104 -1.2140357347406394 0.07454322480970019 0.06738057047298596 -1.4116302201692967 -1.6118396564989748 1.1493031616246292 -1.8841402558602878 -1.016174772291961 0.6925919597031605 -0.5466887775279788 -0.054148583617727744 0.3609770466138846 -1.6529109399768376 -1.625148497818349 0.9473302080788482 0.9640609076410269 -0.701642639977742 -0.8286964337254917 1.3263488456122887 0.3806794254140012 0.9629393525264156 -1.4079765489402378 1.756411114690551 0.8696092683693054 -1.3024597685149992 -1.1481929320087019 1.6459172715722146 -0.6981102721390663 -0.41609744129372483 0.6930826423363021 0.6583674062362355 0.3971120451264082 -0.718497493066604 -0.7531077344884727 0.48143251998705533 -1.059900956519694 1.067173920119343 0.7942656861373508 0.8160964972014936 -1.3307698289540517 1.681170964400039 0.4485003936873738 -0.8121515053215423 -0.20381098217022905 -1.3989569988085635 -1.8314999472859321 0.6433571083313951 -1.3511154341892742 1.3556563723227657 0.7346047962497596 -0.5921547994828734 0.8716131885037054 1.303655877522341 1.7970613755446054 0.7402656871799433 -1.1561303786088049 -0.5879207101301114 -1.7048242328772383 1.2250320884983443 -0.6009691783893095 0.11389055930294137 -0.6066859172564701 -0.9282859745510846 0.12210802132551382 -0.6093496597930076 -0.04662746248920252 0.9651112921382027 -0.9062466644723355 0.6815458610998351 1.8717062108521807 -1.3538961791572788 0.9601431948327801 -0.5219890565180525 -1.9652250577805588 -0.34816822251351176 -0.8196884903185494 0.36237923150807183 -1.0566177022209586 -0.9012161403106655 0.6679365373192852 -1.4001471491505546 0.2979698117330867 -0.15457971702115794 -0.05826441226628741 1.4447715546556414 1.545806093395515 0.3538110127074683 -1.3194970674311157 0.6080926573002747 -0.99667582158466 -0.6837098215996072 1.6001656664299824 -0.22604083237042513 1.9211439261222654 -1.4430068797056348 -0.32264134511973136 -1.7825535476190442 -0.8016121863624006 -0.5293275443465789 0.958635470151774 -1.6614104303534853 -0.4353779541029187 0.34357738819051437 -0.6718904122979522 1.7255009848777085 -1.2288649367579714 1.920314531250202 -1.886340910386196 1.0422915580836352 0.5187299922423524 0.5870367667392389 1.953569635065234 0.5145739511509045 -1.489294280991872 -0.34098212030986835 0.32630008270268246 1.3543696896414603 1.8425722319850373 1.1071072974023983 0.674541299639238 -0.9692102174070463 0.6451954084382915 0.21698907172376541 0.8979609390825144 1.322937824593629 -0.6614283211744256 1.9721855292408748 -0.5966498875758087 -1.5899924460516892 1.6765512778371365 -0.42236911650035763 -1.3929352642520645 -0.019596965220473044 -0.22744324211533257 -1.9131007891187766 1.754490761733707 0.43752141298966774 -1.7684356221551862 -0.6101470049879633 -1.0983510597563855 -1.2480082273766187 -1.6049253181533416 1.4988694229860358 -0.5166887473641232 -0.09246995692425483 2.042127531672047 1.4182247610663832 -1.306713126697056 -2.0821878704982244 -1.8851361719355832 -1.870112800647781 0.5945920165983903 -1.0570341768250264 0.10183560684962828 -1.658388229705841 -1.7852122450764067 -0.8003967644139399 -0.4718926452743488 -1.65965624902537 0.4590622709054242 1.3220312581117957 -0.6460225823259759 0.1265209732774713 -0.8231659889821001 -1.0759404598572828 0.4492102684676866 1.514315198103927 0.6863106175032845 -0.5643133883874096 -1.6133415129925202 -1.1839857224843597 -0.13628270592401767 0.12571203388528174 -0.5407517128735143 0.6796295191011397 1.4694655876210265 -0.6886223189326893 -1.7108317793400871 -2.0911938696829844 0.8677807600868036 -0.21851083649563857 1.3242656926521634 0.2618568200197946 1.208654657952039 -1.0414556751753385 1.5236868777485038 0.8759933981958257 0.8985891244572668 -1.4580696170845446 1.2917333422381931 0.9300692107026349 0.5545649617470082 -1.5623130584645162 -0.07820451982877676 -0.6018208329471422 -1.2737996456199547 0.8299574186704054 -1.0950489575423326 -0.11673137600726201 -0.9414913808361379 0.7838702850545054 0.1275837244890371 0.9142543713393145 1.6778770104701581 -1.0680122464994954 0.6662738831872689 -0.5316796302042561 -1.5850549931833495 1.4440690685116178 -1.7180188798209428 -0.10375209813026282 0.13114454349273932 -1.7019677199568113 -0.8784607305964826 0.02186551312340814 -1.228174543990889 0.3131736532822702 0.14237383909172224 -0.26655962631824276 -0.5437854646013913 1.3175599329559684 -0.5781352338586073 1.6545455829752724 -1.0541506821778617 1.6225611475900947 2.0730903766665767 0.6937787634862169 -0.11579024989022202 -2.019892214656211 -0.6556466476555829 -0.7430411412371727 -0.9053681309567149 -0.5331583771074748 1.299762940449253 0.05045776982261954 0.44906199919868167 -0.08979289022291691 1.4244815921578913 -0.6490370215105877 -1.4802855850407686 -1.3187927745605006 -1.755238105806246 0.11882467895310657 1.247670672588856 1.490464453863772 -0.24627801776024708 0.7340794710640866 -0.8151012750138066 0.8339511768771228 -1.479399466791259 -1.5548752414578237 -1.0799457917543693 0.5207348371400263 -0.4955905069783907 0.2127827421876133 0.20715817107114295 -1.4136846684842101 0.481170456461415 -0.40376432248385274 1.8817857738638595 -1.5834233450215414 -0.9400606009371381 0.5362708220325851 0.9408580874534569 0.8773626827984645 0.8152259525638295 0.9619188690993082 -1.492086009118998 0.43452512578684016 0.601425239465024 -1.6635665499613186 1.651323980070641 -0.5408547069557841 -0.9355256723579298 0.08182844269341145 2.012603167944309 1.1121526632239285 1.6355050884903497 1.5555224857902918 -1.0741766662444594 -0.33094208908519657 1.3241923318658355 -0.3249476848546498 0.10768812268544052 1.3749553984508804 -1.6160857151778398 -1.476117533440003 -0.45561657744618356 -1.8443462609994443 -0.46384605386589556 -1.9131434806140315 1.1598656713518292 -0.10005930189450969 0.4821537049720771 -0.5586839205532658 -1.0245157897390276 -0.45416959283438885 1.2438185710859908 1.3401475011693784 -0.04647886401424136 -1.4618558551253928 -0.21920291750917612 0.38562136433241095 -0.7763785670395608 0.5048893087386898 -0.6054604484132012 -1.8941526731906884 -1.9668471921844575 1.7612946425621616 -0.26912075296589344 0.5812098941353757 -0.006697306532667663 -1.0795084240165769 0.06947207932710117 -1.0458443583701307 -1.346919710722541 -0.3414771151459761 -0.3133134722394328 1.244668637822409 1.0349038057802413 -2.0244031361624404 1.1029248322049323 -0.6690717284969473 1.936705656568464 1.8248839697686905 1.0981210393483094 0.42739194883239684 1.1138550173398531 -0.07279521884984431 -0.3457528148033271 0.8930302226987329 0.21928763564255088 -1.1766305247637339 0.7182451735586969 -1.5316432408545497 -0.09023675180056112 1.102082219431988 -0.1882163899618344 -0.7509440350303623 -0.7951060298485259 -0.851687881062305 1.9194757413753576 0.5280173033904624 -0.7703423679134009 -0.8264056521324723 -0.6488621682926272 0.17187962224522887 -1.2521144068958114 -2.0595903342468396 1.0608185373164625 0.8529075495537659 1.793447678769757 1.9530025345356916 -1.3435421051547365 0.7061218984099318 0.16460215486377272 -0.9102209137947832 1.8585195193848016 0.19487997387688097 -0.1433735130505181 -1.96942817672029 0.6097704442437817 -0.01350676677693164 -1.961773183648899 -1.010610394326532 0.12163511031092081 -0.15596509329403557 1.911015839140303 -1.0981916405618368 -1.3655611074573015 -0.8803789997123401 0.539100834279298 -0.8369626730539595 -0.18632010293614001 -1.8829942386866607 -1.0508848137764157 0.9589448383135529 -1.351723299102123 0.7146026597986247 -0.9996254743475412 -0.3008099461517111 -0.07658230570684679 1.0122103670394347 -1.3943318929609605 -1.5141120267454602 0.7196326738474705 0.45699260395425434 -0.6722082921903988 1.5338282784163224 -0.01032874854815288 1.0044044972742945 1.8739273873044067 0.6301678643874289 -0.37113532884741074 -0.6638186707128543 0.6459876181378043 -0.7930558646557768 0.2029647048724552 0.7927459332524861 1.4983060919959887 -0.4425346593525157 -1.671112208659236 -1.3416014500337248 -0.5523484766259874 1.9397371804023738 0.6853610759491456 0.9859513960329003 1.209261060831158 -0.1463352613062465 0.7210792876015013 -1.600348928593543 0.5396183793553831 -1.5644052755119815 1.4939251581596709 -1.025991471397943 -0.3448431922779107 1.4395670348488445 1.9585193021139788 -1.8650533482129779 0.45141289913103344 -0.8129884323129652 -0.15720287124138782 -0.6621810015787832 -0.16827369987004745 0.44379335613589 -0.2744151635232093 -1.8142766110746211 0.7719860747344289 0.7349736223663339 1.5693235641358274 -0.8644893920419564 -0.221369282364388 1.6800057795395082 -1.8086618303140332 -1.6267423185669905 -1.9150955797276725 -0.8564181992413048 -0.6311231296105247 1.5308408634961848 0.6063089992720584 -0.699200403078175 -0.05364634137136815 1.7721045964793274 1.5270255051512236 -1.7984985111957534 -0.04924943040719046 -1.3453748403823533 0.257699836455144 0.34386159921118226 0.776863124947423 0.794268973690841 0.3693229881956539 -1.1274712819656922 -1.746949688605134 1.5054972628849028 1.3776512546887625 1.292848922529118 -0.050135556308280475 -2.1245513541170027 -0.033802723878586474 -1.3022301507639387 0.26240014756399127 -1.7612776214318797 -0.30861154246452405 0.7859406543964801 0.06374078498786707 -0.0626871717702403 1.7393741250703598 -0.2113486517202531 0.33518478371627 1.2199033525346745 1.0821315118700932 -1.068895069698324 -0.36453692926659353 -0.6616891187609831 0.7040377225996922 1.520051938020531 -0.3086512955052559 -0.3260733929290546 0.7315861735932798 1.0011687455427007 0.9391148059715171 0.486259398323281 -1.1677645737239524 -0.24034768692800215 -1.1556866975512068 -1.0056793976366756 -1.8091275855454312 -0.5092945564004042 -1.920889978723393 -0.32257648355246976 0.07498487604433283 1.3544110280271984 1.6628068331872334 1.7901639245559133 0.40427429999489084 0.9337563204064167 -1.7301045125385361 1.0514781441829706 -0.7372591306364847 -1.607015402242002 0.011228391358027145 0.7239357573657619 1.641788611387299 1.649024459231433 -0.2984513148624696 0.5262172608237289 1.1137644120632755 -1.4501662177087857 -1.5371099569585447 0.8315342480981787 0.5365086878290307 -0.02680214071369861 -1.888713188911603 -1.200101446737403 -0.03973500588820024 0.6331656533231775 -1.3769032220182125 0.9177447052554034 0.9473703436002712 -0.33172822884803327 1.5581180909510615 0.751377769440976 -0.4166258616999985 1.4896648763874099 0.8233871791919162 0.42545149626498086 -0.543709438702245 -0.48954794468519924 -0.6435148035134032 0.6580916274920605 -0.1053630306272485 1.1615361175239227 1.9145588740676895 -0.9270097150886982 0.5215324631350579 0.5705981417414064 -0.7993710735775772 -2.091028930327474 -0.32664634977078766 -1.3554960879604938 -0.8868278793084524 1.5798640013007517 1.2482634466997653 0.006848169232649806 0.8169706826845542 -0.9608847809098875 0.6258661647637166 0.5033265275925782 0.3297930900179357 0.8824236739964831 -1.1274918624875774 0.48618027871075636 -0.6918205830078672 -1.2731440750701863 0.39817720467010453 -1.3656340361960908 1.5860117296551886 -0.5752459233786394 1.047431777862562 -1.6564131502626016 -1.528012208378172 1.8063772047868658 -1.1765677329884516 0.9677806883825267 -1.6965086264617775 -1.0389937912718838 -1.9120759482231973 -0.9391119971939069 1.644605958350492 -1.000695355471466 1.36131121245867 -0.5055316469913929 1.8961060873534294 0.3426596833045056 -0.09990924205283773 -0.3276081710876938 -1.8130552299486902 -0.4599744740311774 1.5681399098591255 0.34521194691518253 1.4513618582330303 1.5368396744659585 -0.1512565376316217 1.340082571182316 -0.16252558785991753 -1.2684671560345369 1.3602979671900617 -1.2966997568532492 -1.4419325349939927 0.8477207754067905 0.839917514510122 0.6901541714811159 0.27677362661379035 -0.15877987644347305 1.2538580376122255 -1.3504410469789607 -1.6789985662191234 -2.266704234985485 -1.3482076998282606 1.047636316025076 0.5717754628950323 1.8156935737182702 1.9316939631164334 1.6135432353526795 -0.6240317377133918 -0.8908452605693553 1.1537605382980212 0.6366345102845983 -1.4628584879287005 1.5386266791171648 -1.2216085969623918 1.7171202785782544 -0.2708620365148361 0.1357753665097232 1.1869570444251056 -0.770558845047337 0.2773717202779097 -2.041785666440539 -1.2736378106384463 0.4032644564407514 -0.7008913150604602 -0.6970811433337093 -0.7202792357714253 0.9898608129032916 -1.437753539679854 0.487213630147538 0.975728599369215 -2.1027534456543755 -0.37935385513232633 1.1522572238967757 0.4552638290956785 -0.62947743548123 1.6749114151910183 0.6745239059998679 1.3688835861739965 0.7937202560435843 1.814247310306958 1.6375773246035874 0.5509342815133957 1.8537126288822852 0.20843326694993444 -1.6490223051978423 -0.5751053893487015 -1.8822648563458575 1.4710479965697112 0.565162329404748 -1.294438362770627 -0.7218573019337486 -1.585907184934879 1.185937215771907 -1.2704291500811824 -1.7234275075330439 -0.9762055585288462 -1.2289899452886224 1.717567441686528 1.260252574730291 -1.9446509650912 -0.27207515512587044 -1.5163613425232583 -0.908541259125254 -0.5813672723246797 1.668682949046646 -1.8099803270584116 0.6483376399391442 -0.24776080139104092 0.5433571234985584 -0.5337196583413785 -1.7457034933501108 -1.9159393673318599 -1.3918537674283002 -0.5496688513885071 1.9300555660197363 -1.1088465817263808 -1.9694168271768047 0.6561257483457016 0.033401902325952686 -0.12199478072285615 -1.3437471939924313 -0.3871798572810975 0.2168058816242412 0.4443254574469454 0.4192868735474949 -1.2269706430113927 0.10883973591975431 -1.7020237091248311 -0.10426528105973358 0.5589423203089408 0.7212378355542028 0.22086332605086315 -1.499451524810019 -1.5789168288139714 1.2512851356751435 -1.3484150779928215 -0.7836868217665837 0.4994981803075854 1.0179141779139604 1.6390941014739477 -0.11678404070050256 -0.5176921439019218 1.6593949226069404 -0.10912128482155053 0.885186680922862 0.9928730458532837 0.43933556167416726 1.927849040460976 0.18485168449865602 -1.7076847576669014 0.014007401800825405 1.5693374111547893 -1.3977179678112837 -1.6181679810212215 -0.07800051505342274 1.7484615875808294 1.5579037656180088 -0.4741355476146121 1.8502644402319157 -1.5359302715355534 0.5746989625163719 1.5836455798307116 0.4863434999564436 -0.10950655738010436 1.7419118900428352 0.15859620087219722 -0.9888465814603391 0.8551665510200691 -0.5810801522114735 1.2318966163506964 -0.9682389838261886 1.3792857701733041 0.45323658066036066 -1.443779898291188 -1.5179157481002816 -0.6116976275253917 -0.20770170763274035 0.7922090775975973 0.3490622644495756 0.32819706699898216 -1.7621419710086355 -0.14611246181689133 0.7823358637329981 -0.21842795397783735 1.5190936891396984 -1.569851063727695 0.04220428521034427 -1.576174154391076 0.11062710215577592 -1.2912676540962527 0.21445282226181867 1.507754512570477 -0.5858450848154345 0.9733696733056707 0.5170074349949454 -0.2822837031581796 0.13483214793080084 -0.8004615539026493 0.6587599376247945 0.7880302250035178 1.481570553277089 -0.8906456826567363 -0.6862806800456464 2.031698081046486 1.9864093007653898 -0.028759591203665218 0.047673664194402644 0.9460808760264218 0.4826917001170676 -0.630103412709854 0.3790638431368999 1.408104205993257 0.35592432706673993 0.15321198733669847 0.2382680899199308 1.4554331770110596 0.914938583959544 -0.7237646269282487 -0.34143858736570526 0.4750691235133095 -1.101056500135996 1.661749564195336 -0.014452523714519465 0.47554012923738026 -0.012491138269171 0.18129530515239678 -0.6879816916860501 -1.7397087675791432 1.1752502946799153 -1.8811015242683509 0.04430808924183545 1.76992394597789 0.9145125046729747 -0.04565444456651847 1.3568624294205893 -0.6456846363231191 -1.2294242266891102 -0.9110560918949833 -1.0689104395077325 -0.6575565905141523 1.1361536113588115 -0.6938911746607431 1.326824884103234 -0.34599561175415905 -0.34484052755822864 -1.1912780634724534 -1.659113340620417 -0.043810199570372174 -0.6546596573642877 -1.014312373852755 -0.9827086415447247 1.8301152558587162 -0.43128918653997894 1.8993184999775514 -1.6275637422538243 -0.16390288055029828 1.080693096156019 -1.4223704532294301 -1.0669783401992283 1.1593697300950336 -1.6913205812619105 -1.5677149046160357 -1.1007987778673072 -0.9227926112340068 0.9760465000723783 0.8886572347573695 1.8492366545709173 -0.6644631061098845 -1.791109135195137 0.28233952264057166 0.41222946519485504 -1.7527732210007039 -1.3372353001190318 0.4388052955727182 -0.7514666320314892 1.8185314422535255 1.7252172380406428 -0.4694053258091276 1.9825623671047747 -1.1229544188688434 -1.0092393464999907 0.20898702061466062 0.49529497906109404 0.3247490933120409 1.3335419637892785 0.06301889618032828 -0.9354185618529277 1.3309219422750223 0.8607935901240106 0.8419055584875887 -0.1496793600497894 -0.05358095625728097 0.6675769463529763 -1.6216866293582608 -1.0832146592940133 1.7003533868734588 -1.702810175744018 -0.0903733435207912 -0.7237207680555571 -1.756463039597812 0.9508485517507425 1.601021826013786 -1.552657922895814 -1.1710093618471737 -0.05711174766390655 1.4795083497631252 1.9719512628364972 1.3073575899711225 -1.3812192108534107 0.20431711693848278 -0.5640612548769336 -0.5396752829146033 1.9407368358409283 -1.313032718958604 -1.8488227956544763 0.15312421425970016 -1.4481525845040606 0.17421498613850644 0.3704790494781988 1.4241336406249279 -1.3681185630842734 0.42363060167109495 1.670692369006505 1.4660878804786734 1.0010995109813547 1.1805084979503933 -1.4001869760460697 -0.6005730825529247 -1.8280044909288142 1.3046444690813126 -0.03909455928246454 -0.9486393032194113 -1.1867815059925177 1.9887930281247077 -1.9254482145620697 -1.151044854677504 -1.8374094845502766 -1.2254897359189774 1.4099651277596457 0.3875472525880865 0.19097579109916885 -1.2956552477423258 0.5840070842775114 -1.359813134737095 1.912546173976171 -1.8645021176240453 0.543847881891498 -0.5980909284245339 -1.524707523716094 1.5354136892012749 0.9196649238025554 -0.7219271031892497 -1.6069908380728288 1.2806543866491367 -1.0901276541428697 -0.4907514080999458 -1.2360569438460747 0.4045108185396832 0.8596659185345173 1.4472333376587823 -0.4142012287933853 -0.6862040411553231 1.939788504906495 1.9132852978633461 0.10789633496536429 -1.274775611466002 0.64814245287296 0.8235288530340871 -0.3845332533769317 0.9960912787123789 -1.2563846263870904 -1.3279744459800598 -0.7688831276388653 1.6261606808785884 0.558633539214863 1.3466878530176387 -1.2032377557129357 -1.7775627602904016 -1.4077139437340986 1.601027157390743 -0.3151719102106612 1.1433932338215107 -0.829164753972707 0.7680494262097486 -0.23863206702581188 -1.9813397580359062 0.11100497015065725 -0.3905576684701341 1.7857624829851728 1.3092530590919167 -2.1556056595539466 1.8207521109681113 -1.781316369637616 1.9932731749588222 -1.8117856519473639 1.1487154521162641 1.8311133687449863 -1.9409262359052328 -0.09221519811706617 0.19118654240645125 -0.12124989538438727 -1.9506930590398415 -0.17954899687521375 1.7998685261586231 0.12067232495407283 -1.2408679205572135 -1.7447242045593991 1.8489388567904734 1.040170912071192 -1.425638228699337 -1.9811918027856024 1.4062824374923748 0.9825354353498563 0.1244983949885128 0.2320340742827038 -0.6032576596830587 -0.1726195815186864 1.0518216344800453 -1.5918562081723513 -0.08915532730999458 -0.06365440131859001 0.3484829763382805 -1.8408718418939956 0.4645105049954361 0.19925312168014392 -0.047107471387713554 -1.199344775258648 -0.824612206154768 1.659182470859813 1.8464804176513996 -2.079192329943616 -0.3724562622469364 -1.6593809878838564 -1.8106217623425114 1.0540681236088933 -1.038387862172772 -1.7936591801035702 -0.9007760281204913 -1.3764571904899456 1.3117780500633167 1.0846501001783209 0.8438523990086785 -1.8557292043243363 -1.4498707481689599 0.2406210557621515 -0.9239048083366683 1.6982299419208233 -0.4100607903501784 -1.256186720422052 1.9686579654814265 -0.688436638423055 1.938919868377111 1.2563565972621566 0.9300378246269996 0.001978544320371172 1.4576632833130105 -0.365911944257547 1.456079753826657 0.8837171775277094 0.7223041912548034 -0.9378257561687844 0.1723489309541213 -0.39523181972306065 -0.3884618440334079 -1.3502551680988464 1.9778229987977327 -0.5649644141440106 -1.1384407838772541 -0.9351140852458699 -1.3468717472748364 0.1267988404649261 -0.833960823812734 1.2800277188585187 -0.8524175320540506 0.6707600579901095 0.6049076849415176 -1.9121589671027877 -0.13502861364130875 -0.8490720954768846 -1.1369710360786613 -1.4609717357579894 0.710754935440597 -1.1034933343592142 1.9677013569506123 1.9965739754802643 -1.980116119035218 1.1891473582280685 1.5837947199722193 -0.7703045268706588 -1.6021286624021798 -0.26266099896989625 0.8142473983331197 -1.417236602986195 0.5179032636319183 0.9215013390739365 1.855745959679581 -1.9461620590015267 -1.2851377668342856 1.3786320360352382 0.4520689401138223 -1.1742132307308437 -1.6595455560721022 0.20872327102946714 1.1162362193151312 1.2320427163936312 -0.7424458050960309 -0.6865505795916473 0.23731136952778425 -0.11164693095832243 -1.858509964338899 0.8388603159745868 0.7621714752200334 -0.2974427943692652 1.3966002490157055 -0.4527779668482702 -1.0414522205710282 1.6186666435403632 1.1088428534120125 -0.5674053783354552 1.7202813013543283 0.2939279742662584 -0.9356368392440639 1.4886563903364185 1.3989168130964351 -0.5834109244447198 1.4853201660821205 -1.6511126383505497 -0.9505794030030633 -1.0127477466027948 1.5007610656410706 0.9947330302572994 -1.458209273726753 -1.0859424372200221 -1.5801894515072195 -0.5487967673493124 -0.351855972843132 -1.249460226993337 0.2913428181190386 -0.29115579759515936 -0.989060983148916 -0.6589165562116428 -1.2146460715205039 0.5875628013102527 0.05715406767379262 1.0476482469225885 0.6528820032230679 -0.8843328482406891 1.0883446305714983 -0.012739591651164112 0.0016308712143070182 -1.7574600508749818 1.0272469178744166 -0.8932577995700601 1.138027468708345 -0.20022571841259557 0.49638529760121325 1.227180718934328 1.2149179243546364 0.305525066079087 -0.4828020972465596 -1.7165117613680276 1.49575384913529 1.0827529046646827 1.6042394146292178 -1.5192793873836237 1.4367064718322866 1.403517290676232 1.3278049557765 0.49939505097899317 -1.0941744297900704 0.9467526894452865 -1.3835602045460924 0.8820240417861349 -0.4816241888520013 0.8349116042814612 0.4954053295362566 -1.547859637388 -1.2940007001764624 1.9533600736801746 -1.2853954908092386 0.2085093865541875 1.6961105372123169 -0.2969052562155189 -0.5794396010787638 0.975664785740515 1.2365375308531503 -1.6202104630096916 0.10987248433821858 0.9508989264126224 0.05165558907561004 0.32345320331349736 -1.1363442761791138 -0.7161939994128157 1.943019970909867 -1.1203434986876804 -1.889413093603263 -0.18847607089229718 1.968989028818953 -0.11790930265714282 0.1748031976276007 -1.4641114091128518 1.0510031006689324 -0.049519660397530536 -0.45585707070147796 -1.4409576550450796 -0.9538106856956032 0.05682887337431773 -0.6300200849876 -0.3202136310581659 0.5690002243666401 -0.2924250370203379 1.0270188731839438 -1.6178217406944615 -1.047229711714279 1.541658718572448 0.5266412121245683 -0.741740286263072 -0.6399467480704117 -1.6020797824352817 0.20050566405964934 -1.2756039308550842 -0.8929474488246659 1.0859865939128162 -0.626429868498506 0.1786541538602069 1.072409552067385 -1.9923012158185935 1.8326325660619256 0.2660869433668654 -1.605136169367246 -0.8352456105379865 -0.8770026888126248 1.491308758426091 1.0249310361141128 0.21806400253294575 0.8871177431134373 1.471201206906904 0.17860166648425907 -0.8303608330321961 -1.8993082994860697 -0.15263503841252468 1.3390068496143692 -1.0300122160569922 -0.21332503783484832 1.5367441276497518 -0.1278039451252077 0.992005839444121 1.5891634626885955 0.9431719343128813 1.2073005248127164 -1.7791244894313576 0.8344834275940195 -1.0791891985212156 1.7099612286395498 -1.2724350972904461 -1.6063758121195613 1.221508653220461 1.801994742886229 -1.9312288795139385 -1.0710802465206353 1.4956502920185273 0.8568819593475945 1.289221874771154 -1.7376441990744702 -1.4768137602862474 1.6809822339145766 -0.7487771568804944 -1.1898744469862652 0.5927019541654446 -1.2880864777277605 1.0479853456932733 0.9976836464654366 -0.001362871382982852 -1.7727269109497548 1.2429878349840828 -1.4233466474782224 0.48891191917246624 0.23247568274330513 -0.11826843462056275 1.1365256756358588 1.5076285471688675 0.7981277441316273 0.20823353260707836 -1.004495322826796 -0.6694645086638918 0.7295181426463225 1.9555657361291818 -0.492578713553177 1.1118935591521306 -0.8434629348692364 -2.1578597245076683 -0.6034180281605752 1.480698555593276 1.891683401945567 1.6706517047198395 0.9125791547402181 1.405613948370634 1.4668470587048235 1.3096491570027942 -1.153598174237699 1.2905787683885959 0.7450639927864863 0.7762009110453054 0.7138449867534912 -1.882365414308124 0.4497854691318227 1.6321370609096797 0.2732882981966467 -0.1480437554329956 1.5161195501041749 -0.3263523282810375 -0.7764144306642243 -1.5468577599006796 1.7266296313249396 -1.7797588801303201 -0.6913826306026801 -0.7342499998545264 -0.6439561144033874 0.39415527045340154 1.3319491156834942 -0.6767942539113281 0.4495162882524027 1.283853090670587 -0.8604927131659938 -0.5012156667895341 0.9457413518621997 -0.6232970785024728 1.3615249132861003 0.3617090246054532 -1.0187708738897885 -0.0533242799689329 0.8173288956659365 -1.3299519545354102 -1.5086858225128144 1.131554911354348 1.5607742847691766 -1.3765261615504762 0.79580175656037 0.8551034404030622 0.7897036162229563 -2.117673298909515 1.713748739505942 -1.902872291468586 -0.06557100613971709 -1.8293773448106758 0.28924511827383115 -0.7508706670054826 -1.625166042513307 0.830542029284515 -0.7999878581842651 -1.0731559983619783 -0.8290738214591922 0.18880689076307533 -0.5294355482199511 0.37228841803434537 -0.055268392807328134 -1.0871022211984254 -1.3854900580909038 0.798837246968932 -0.37695620592408197 1.8055655077093928 -1.5346073652945984 -1.156695743630983 1.872044384189112 1.648976301280701 0.12847500030513206 1.47515692253533 0.5919600882829238 -0.5899562930888056 -1.8351612386410452 -0.6405202960824972 -0.799522315638453 0.6924769069740359 0.1338158850223664 1.5935715868136826 0.09549696666872261 0.05827150945411052 -1.6480726175878975 -1.1467192874276326 0.2082957843227908 0.1473490180363062 -0.11554305159995237 1.3187740594154727 0.6226569161051477 0.37308060593374853 1.0588458569200758 -0.07514724670818532 -1.0294903853688742 0.003771106945440571 1.7012791524484099 1.1250677886793476 -0.09630752308725485 -1.3373103027460511 1.2171361665087932 -1.2724077231916553 1.8908151753327629 -0.7970612596969996 0.9905378402034979 1.0087820651931132 -0.506549856766321 0.6372669109193423 -0.12080462354163865 -0.25133462148837177 1.987017014848877 -1.6547851590393177 0.6646677070092 -0.189269135677489 -0.709176368185795 -0.8502014399741864 -0.7915453008542824 -1.756380676999277 -0.7184292530006928 0.1706680680648792 1.2473915089613952 -1.6652310477744552 -0.34997038613667036 -1.0292311089191835 -1.0190987548881136 0.29129806871233205 1.7836213301273596 -1.6567015438678332 0.2743369233330485 -0.3407877881521858 -0.3608861733190096 -0.9926184596193891 -0.5256812734497216 0.6461914770994093 -1.900005165312595 0.28083231287328564 -1.383778534293982 -0.5713795701277478 0.28153169638768416 -0.7495207796073504 -1.4857740886842197 0.15415474151967506 1.7464685942576361 1.5839149848785024 0.1166530114788424 0.8671611866865363 1.6962801442429176 -1.9193480668334275 -1.2325681075086672 -0.8609837987276642 -1.8118922816016405 -0.7805336920701347 -0.18340196020621902 1.227585348719421 -0.25134003330452326 -0.06816002149553381 1.4660458640637726 1.696078637772874 -1.978028351380342 0.9824555242681499 -0.9641047570006013 -1.7141505245752897 0.7522898967656674 1.6959083674493858 -0.6030033549329596 0.27632980423122805 -0.476802310364381 -0.5418696740915231 -1.9751457745760224 -0.545047169147204 -0.27612742543889673 -1.0142247104841609 -1.0314866595931946 1.750863775924764 0.9867321684448148 1.3752948935794709 0.5888376051467777 -0.9073873356460218 0.1876266332133037 0.8265527183792419 0.13816246418115877 -1.970650618074725 -0.4245797285215788 1.9592533621631343 -1.5830936630298529 0.2136771596948537 1.1149451059554132 -0.8969627588215097 -0.769392758805617 -1.629286127086282 0.9791085272257418 1.9886660310440958 -0.9114832964468552 -0.8535668005058696 -1.9250940882747294 -1.3007036360818087 0.044413649647804906 -0.6332765049318756 -0.2612028935015969 0.5706085275956926 1.2149193678887023 0.6259608156099802 1.7946138961184337 -0.8681549862715108 -1.279538510506436 -0.3744696055062558 -0.09229842743520625 1.6720195822911368 -0.032577492697637274 1.0516808996136962 0.6464408694264133 -1.9774120267239184 1.6260752897323123 -0.6865109731253142 -0.8886733507372206 -1.49602061475547 -0.19632697695545706 -0.49615626836360005 1.956664387033693 1.7903565501931487 1.549538112997895 5.683159795018413E-4 0.16644745366244162 0.9366858651885807 0.7261502944145233 1.8613282291360413 -0.1589745177940543 1.3544571980200004 -1.4988910122674621 -0.4084175018477534 1.7969843643836991 -0.9179550343663164 1.5127908901795553 0.15775878006553837 -0.7336188545379281 -0.8232141246376516 0.09596599547618975 1.2949119133493197 -1.6493784999683483 -1.360912356162136 -1.3163606762970617 -1.929284969334095 -0.8995133557235833 -1.0754634261917144 -1.6191109867802917 0.2179217722966005 -1.3308447324564776 0.48286562197171135 -1.6445343490360675 -1.1170961483713056 0.07135581233123071 -1.857805299328704 1.2094996695070004 0.18424178699062363 0.2418328341869371 1.117324030670168 -1.5894482531454237 -2.0117861779881054 -1.917455872756378 1.2819733923861365 -0.7376185062455699 -1.7113391842605838 -0.014508869648410947 0.24928963093887166 0.3267164181568189 1.4366985234661707 -0.45269391753406685 0.5721543885176891 0.5064810476139647 -0.08193980535409451 1.9848647644494775 1.5809218696969527 -0.7148006859592941 -1.1308115171160755 1.3381608433927168 -0.6822987695804202 -0.16756085722245434 0.8781991736672865 1.3168103096262331 -0.5302457312254957 0.1359212709749485 0.8047166626402591 -0.7795085283661497 -0.44898633289673723 1.9443716979782293 0.561367718420688 -1.2216579322026955 0.9465064703013999 1.5910167541443574 -0.43550399331629663 -0.37462872125819785 0.7264129019329777 0.4544257909929809 1.1332188495868596 0.06400437349582834 0.36436894283052834 -1.290681472534122 -0.1959516174931937 0.28403597529777547 -1.51077673632658 -0.7443542094923183 0.9878670289426827 1.367788093196342 -0.9482302217423079 0.5082574574475195 1.0368983995616654 1.2341027504698112 -1.5221258884770368 1.2163561474735272 0.43583514350034164 -1.0416258439596733 -0.8255389901418013 -0.2914789216725796 -1.0398641485838152 2.036095905015853 1.2126763053524832 0.5876912329153368 0.10467128230817453 -1.1511835084156898 -0.6732581497889834 0.14393678160360718 -1.9879024699339682 1.631528279482283 0.5044584005646325 -1.5443562878204513 1.0277615929750399 -1.7804245896483424 1.3798731838653286 -0.22643919218718206 -2.057080500884932 1.6242938994949274 0.30439651399924456 0.8550614418857708 -1.4463552575115222 1.3061437779160914 -1.0045141591125777 1.9227158591223978 -0.07528238492070304 -1.9948217469854923 -1.547896421554363 -0.3728700955105937 -0.18494429463639783 0.44768347765553157 0.7951133318382563 -0.5376014436318098 0.656280435726091 1.4270050858391752 -1.6313724132947818 0.09995606709013298 -1.284840349795313 1.8399594380435498 -0.1658597685232437 -1.6686960127150843 -0.6031518783600458 1.8027829654867078 1.6623587021567752 -0.7423066938888162 -1.3512162290720624 -1.029858511733904 -0.0865476725914782 -0.6866124585000846 0.9577640458165748 -1.0178547994659575 -0.215787156695362 1.1302213896315094 1.209551563987631 1.1309457425614087 -1.3674132310202678 -0.10045752895876398 0.2734291489122634 1.6378746484201447 1.2877244853266736 -1.4057773845530845 0.17703943531498992 -1.4516872926764308 -1.594024284190534 -0.6144803859189332 -0.9705552554202089 -0.5684045498586068 1.2849604055808965 -1.151275628593167 -1.2382228863425309 0.8288623298031791 -1.6172644469931197 -0.4836944826963595 -1.6639446142613816 -1.095841386142433 0.9828765863272617 1.0253232430219656 1.766224141026265 1.1694424318373384 1.9109410178456445 0.9592497482744522 1.7609768912829438 -1.426658138476305 -1.3823853296216702 -0.5541577736753877 -0.07162364929338122 -1.9934145392022244 1.0168608735910603 -0.8256117452081391 0.5734428765182427 -1.1570488516297217 -1.1061544619616346 -0.5816332697519316 0.8507289947146918 -1.1118288559590976 0.11666941436540425 -1.4587454289495292 -0.08060984463212563 1.5325179407608527 -1.1451476625468306 0.3586932036563028 -0.7465258617409635 0.7611670386578949 -1.4763384935977564 0.9780610103811633 1.3827926687231467 1.0967748493687688 1.3001565656434506 0.25345741598331034 1.101878294866933 0.6326711218852936 -1.6887539260816 -1.7431656382256553 -1.0100659093080027 -0.9687839581401956 0.966339322466808 -1.0758103949110682 -1.399034662460892 1.9052855461397582 0.3571311515717846 1.4048834333370257 -0.35519965578657614 1.9791318973601755 1.6902901042897212 -1.358278177385592 -1.8473918907952434 1.0803194249067714 -0.2154993235298955 -0.3585721696814371 1.5003039202077884 0.06925070628130475 0.5503987175597977 2.0502975218838473 0.805404771972036 0.7101777309079822 -0.4522073357850125 0.8317312025278798 1.2669818325895001 1.2814329842130914 -1.813307137479915 -1.0031159665061442 0.6500404799122483 -0.3319691913300565 -0.7564007544249225 -1.3677425094033326 -0.5973405208619754 1.1598407182690744 -0.8961000572754491 1.524398726038023 1.2079739559131024 -0.3473453466187454 1.498959653347659 0.5209119891637746 0.8589196317345019 -0.21792331097239995 0.45334351826263386 1.5542215166460993 -0.7154900573453836 -1.430655856723267 1.776825935535363 -1.0527128466514635 0.06622010679282272 0.3385207306018377 -0.062346026472638094 1.761435236652948 -0.19745979333296848 0.18927644988146433 -0.22611012556883847 -0.3174308235874669 -0.45755130393084353 1.9317814979158423 1.3079428455467437 -1.2021538813494388 1.4770980150648423 -1.6354684934924064 1.5151539587469514 -0.41497421796337997 -0.7577122953783123 0.3759608051956773 -0.7424571609154454 0.9647432856871638 1.3206569322394524 1.6924919298784735 1.1130338933842459 -0.2617214128602568 -2.055279396296298 0.4308546273181246 -1.1166421627769594 -1.5094916525324316 0.6299180191157299 0.3370814804888837 -0.49472499541948706 -1.116327752282835 1.5483742005455448 0.5235431026151803 -0.1911519023450777 0.6845405149027567 1.2363966187285582 0.2853712737921749 0.007851229787669467 0.1461224825591738 -0.1433414251832207 -1.713794271342267 1.1236470435176908 0.37763527376668665 -0.5934249764573408 -1.5511773443713996 -1.2436890229537243 -0.385316816285231 -1.5163676671712416 1.0722943631703115 -1.701437701643199 1.1703417861692536 1.191863646351929 -1.449149378902732 -1.3895043763229729 1.3797386335570099 -0.32352863723387376 1.2321076843295506 -0.6161966861015449 -1.025633742471556 0.6003383128409081 -1.7269909971834985 -0.03027605747304956 -1.7200285626382117 -1.3484332014959801 0.22293777906609125 0.1117922461175682 0.795892973107707 0.8882891884067892 -1.4145239828604197 1.8440488316072552 0.03546967207105346 -1.399512496143682 -0.3579808059723902 1.33769331023558 0.033831062259567675 0.08655471135149022 1.4288897008833727 0.9383271944138422 -1.0460012723446295 0.9749822094110523 0.54525356392816 1.6600638829208447 1.967376508012672 0.7019872164210851 -1.9264833204097385 0.8564582399750559 -1.3209283844329704 -0.7791175800330232 0.2308118813594614 -1.7061020901401105 -0.46689673347480887 1.9583816834974948 